{"learner":{"attributes":{"scikit_learn":"{\"_estimator_type\": \"regressor\"}"},"feature_names":[],"feature_types":[],"gradient_booster":{"model":{"gbtree_model_param":{"num_parallel_tree":"1","num_trees":"200"},"iteration_indptr":[0,1,2,3,4,5,6,7,8,9,10,11,12,13,14,15,16,17,18,19,20,21,22,23,24,25,26,27,28,29,30,31,32,33,34,35,36,37,38,39,40,41,42,43,44,45,46,47,48,49,50,51,52,53,54,55,56,57,58,59,60,61,62,63,64,65,66,67,68,69,70,71,72,73,74,75,76,77,78,79,80,81,82,83,84,85,86,87,88,89,90,91,92,93,94,95,96,97,98,99,100,101,102,103,104,105,106,107,108,109,110,111,112,113,114,115,116,117,118,119,120,121,122,123,124,125,126,127,128,129,130,131,132,133,134,135,136,137,138,139,140,141,142,143,144,145,146,147,148,149,150,151,152,153,154,155,156,157,158,159,160,161,162,163,164,165,166,167,168,169,170,171,172,173,174,175,176,177,178,179,180,181,182,183,184,185,186,187,188,189,190,191,192,193,194,195,196,197,198,199,200],"tree_info":[0,0,0,0,0,0,0,0,0,0,0,0,0,0,0,0,0,0,0,0,0,0,0,0,0,0,0,0,0,0,0,0,0,0,0,0,0,0,0,0,0,0,0,0,0,0,0,0,0,0,0,0,0,0,0,0,0,0,0,0,0,0,0,0,0,0,0,0,0,0,0,0,0,0,0,0,0,0,0,0,0,0,0,0,0,0,0,0,0,0,0,0,0,0,0,0,0,0,0,0,0,0,0,0,0,0,0,0,0,0,0,0,0,0,0,0,0,0,0,0,0,0,0,0,0,0,0,0,0,0,0,0,0,0,0,0,0,0,0,0,0,0,0,0,0,0,0,0,0,0,0,0,0,0,0,0,0,0,0,0,0,0,0,0,0,0,0,0,0,0,0,0,0,0,0,0,0,0,0,0,0,0,0,0,0,0,0,0,0,0,0,0,0,0,0,0,0,0,0,0],"trees":[{"base_weights":[-1.2344052E-3,1.0981874E0,-1.294352E0,1.6225157E0,4.751211E-1,-7.031215E-1,-1.6310582E0,1.4076004E0,1.7999688E0,9.477695E-1,2.3167789E-1,-4.7020882E-1,-9.3673337E-1,-1.3360276E0,-1.7489762E0,1.5388473E0,1.1801084E0,1.8823192E0,1.5071445E0,7.595051E-1,1.0726323E0,4.5495695E-1,9.416405E-3,-6.0423183E-1,-2.826206E-1,-1.1229018E0,-8.0496824E-1,-1.4614604E0,-1.1182142E0,-1.9096191E0,-1.5889323E0,1.3518552E0,1.59959E0,5.3620756E-2,6.3931234E-2,1.7987949E0,2.0800607E0,7.236282E-2,8.5777424E-2,6.21152E-1,8.6350846E-1,9.78288E-1,1.2054354E0,2.7835885E-1,5.7942766E-1,-1.654742E-1,1.959365E-1,-8.4449977E-1,-5.231703E-1,-1.4953841E-1,-3.4729454E-1,-8.586869E-1,-1.1623074E0,-8.5836977E-1,-6.806242E-1,-7.784342E-2,-1.3685052E0,-1.1650921E0,-8.9294755E-1,-9.9536106E-2,-9.144928E-2,-1.6672479E0,-1.4536785E0,4.795462E-2,6.918384E-2,5.7890393E-2,8.063984E-2,9.3239546E-2,8.421444E-2,2.9125798E-2,1.04163006E-1,-1.1665607E-2,3.1887617E-2,4.4521656E-2,2.8001485E-2,4.3354515E-2,5.1665545E-2,6.1149966E-2,3.221565E-2,2.477743E-3,1.5964305E-2,2.593874E-2,4.0302854E-2,-1.4271149E-2,-5.3310147E-3,6.1699525E-3,2.2174105E-2,-2.8742075E-3,-4.2608954E-2,-2.2685915E-2,-3.4348425E-2,5.955993E-3,-9.167103E-3,-1.964246E-2,-7.5998018E-3,-5.117556E-2,-2.7889132E-2,-6.509264E-2,-5.484539E-2,-3.607196E-2,-4.501079E-2,-3.5757948E-2,-2.2067944E-2,-6.857152E-2,-1.8124199E-2,-5.844369E-2,-1.0124207E-2,-1.0665599E-2,-4.5920666E-2,-7.767622E-2,-8.760924E-2,-7.4915424E-2,-6.350946E-2],"categories":[],"categories_nodes":[],"categories_segments":[],"categories_sizes":[],"default_left":[0,0,0,0,0,0,0,0,0,0,0,0,0,0,0,0,0,0,0,0,0,0,0,0,0,0,0,0,0,0,0,0,0,0,0,0,0,0,0,0,0,0,0,0,0,0,0,0,0,0,0,0,0,0,0,0,0,0,0,0,0,0,0,0,0,0,0,0,0,0,0,0,0,0,0,0,0,0,0,0,0,0,0,0,0,0,0,0,0,0,0,0,0,0,0,0,0,0,0,0,0,0,0,0,0,0,0,0,0,0,0,0,0],"id":0,"left_children":[1,3,5,7,9,11,13,15,17,19,21,23,25,27,29,31,33,35,37,39,41,43,45,47,49,51,53,55,57,59,61,63,65,-1,-1,67,69,-1,-1,71,73,75,77,79,81,83,85,87,89,91,93,95,97,99,101,-1,103,105,107,-1,-1,109,111,-1,-1,-1,-1,-1,-1,-1,-1,-1,-1,-1,-1,-1,-1,-1,-1,-1,-1,-1,-1,-1,-1,-1,-1,-1,-1,-1,-1,-1,-1,-1,-1,-1,-1,-1,-1,-1,-1,-1,-1,-1,-1,-1,-1,-1,-1,-1,-1,-1,-1],"loss_changes":[1.12739375E4,1.3994277E3,7.2426855E2,8.621289E1,2.2530402E2,7.1599915E1,7.840918E1,2.9743408E1,2.7812012E1,1.4841187E1,6.426182E1,1.654808E1,1.5286255E1,1.6588867E1,3.9515625E1,5.413574E0,2.7770996E0,1.2576172E1,1.0617676E0,3.33432E0,3.807373E0,1.403862E1,2.123582E1,7.095581E0,2.3494034E0,1.8234863E0,2.0054474E0,1.5942383E0,1.5785217E0,1.7280273E0,6.4211426E0,7.9763794E-1,1.0383301E0,0E0,0E0,2.1643066E0,1.6149902E-1,0E0,0E0,1.8367424E0,7.351608E-1,5.602112E-1,7.9875183E-1,2.5031776E0,4.777725E0,2.341545E0,5.6015177E0,5.312042E-1,3.0101318E0,8.6643124E-1,1.6039829E0,1.3633595E0,6.9836426E-1,8.9193726E-1,6.9244003E-1,0E0,1.5325928E-1,4.9865723E-1,6.1753464E-1,0E0,0E0,2.3200684E0,6.682129E-1,0E0,0E0,0E0,0E0,0E0,0E0,0E0,0E0,0E0,0E0,0E0,0E0,0E0,0E0,0E0,0E0,0E0,0E0,0E0,0E0,0E0,0E0,0E0,0E0,0E0,0E0,0E0,0E0,0E0,0E0,0E0,0E0,0E0,0E0,0E0,0E0,0E0,0E0,0E0,0E0,0E0,0E0,0E0,0E0,0E0,0E0,0E0,0E0,0E0,0E0],"parents":[2147483647,0,0,1,1,2,2,3,3,4,4,5,5,6,6,7,7,8,8,9,9,10,10,11,11,12,12,13,13,14,14,15,15,16,16,17,17,18,18,19,19,20,20,21,21,22,22,23,23,24,24,25,25,26,26,27,27,28,28,29,29,30,30,31,31,32,32,35,35,36,36,39,39,40,40,41,41,42,42,43,43,44,44,45,45,46,46,47,47,48,48,49,49,50,50,51,51,52,52,53,53,54,54,56,56,57,57,58,58,61,61,62,62],"right_children":[2,4,6,8,10,12,14,16,18,20,22,24,26,28,30,32,34,36,38,40,42,44,46,48,50,52,54,56,58,60,62,64,66,-1,-1,68,70,-1,-1,72,74,76,78,80,82,84,86,88,90,92,94,96,98,100,102,-1,104,106,108,-1,-1,110,112,-1,-1,-1,-1,-1,-1,-1,-1,-1,-1,-1,-1,-1,-1,-1,-1,-1,-1,-1,-1,-1,-1,-1,-1,-1,-1,-1,-1,-1,-1,-1,-1,-1,-1,-1,-1,-1,-1,-1,-1,-1,-1,-1,-1,-1,-1,-1,-1,-1,-1],"split_conditions":[2.5881904E-1,-5E-1,7.0710677E-1,2.598E2,-2.5881904E-1,5E-1,8.660254E-1,-7.0710677E-1,-7.0710677E-1,2.46E2,-1.8369701E-16,2.31E2,2.158E2,2.181E2,2.068E2,2.442E2,2.48E2,2.778E2,2.778E2,2.3605E2,2.598E2,2.387E2,2.349E2,2.106E2,2.891E1,2.832E1,2.329E2,2.051E2,2.354E2,1.964E2,2.201E2,2.274E2,8.07E1,5.3620756E-2,6.3931234E-2,-8.660254E-1,3.26E1,7.236282E-2,8.5777424E-2,6.44E1,1.157E0,1.004E2,2.361E2,2.196E2,2.582E2,2.198E2,2.535E2,3.26E1,9.066667E0,5.71E1,1.089E2,1.11E2,2.009E2,2.199E1,2.521E2,-7.784342E-2,2.851E1,3.15E-2,1.8E1,-9.9536106E-2,-9.144928E-2,9.659258E-1,2.332E2,4.795462E-2,6.918384E-2,5.7890393E-2,8.063984E-2,9.3239546E-2,8.421444E-2,2.9125798E-2,1.04163006E-1,-1.1665607E-2,3.1887617E-2,4.4521656E-2,2.8001485E-2,4.3354515E-2,5.1665545E-2,6.1149966E-2,3.221565E-2,2.477743E-3,1.5964305E-2,2.593874E-2,4.0302854E-2,-1.4271149E-2,-5.3310147E-3,6.1699525E-3,2.2174105E-2,-2.8742075E-3,-4.2608954E-2,-2.2685915E-2,-3.4348425E-2,5.955993E-3,-9.167103E-3,-1.964246E-2,-7.5998018E-3,-5.117556E-2,-2.7889132E-2,-6.509264E-2,-5.484539E-2,-3.607196E-2,-4.501079E-2,-3.5757948E-2,-2.2067944E-2,-6.857152E-2,-1.8124199E-2,-5.844369E-2,-1.0124207E-2,-1.0665599E-2,-4.5920666E-2,-7.767622E-2,-8.760924E-2,-7.4915424E-2,-6.350946E-2],"split_indices":[13,13,13,11,13,13,13,13,13,11,13,11,11,11,11,11,11,11,11,11,11,11,11,11,0,0,11,11,11,11,11,11,4,0,0,13,10,0,0,4,9,4,10,11,11,11,11,10,5,10,4,3,11,1,11,0,1,8,6,0,0,13,11,0,0,0,0,0,0,0,0,0,0,0,0,0,0,0,0,0,0,0,0,0,0,0,0,0,0,0,0,0,0,0,0,0,0,0,0,0,0,0,0,0,0,0,0,0,0,0,0,0,0],"split_type":[0,0,0,0,0,0,0,0,0,0,0,0,0,0,0,0,0,0,0,0,0,0,0,0,0,0,0,0,0,0,0,0,0,0,0,0,0,0,0,0,0,0,0,0,0,0,0,0,0,0,0,0,0,0,0,0,0,0,0,0,0,0,0,0,0,0,0,0,0,0,0,0,0,0,0,0,0,0,0,0,0,0,0,0,0,0,0,0,0,0,0,0,0,0,0,0,0,0,0,0,0,0,0,0,0,0,0,0,0,0,0,0,0],"sum_hessian":[7.928E3,4.285E3,3.643E3,2.326E3,1.959E3,1.323E3,2.32E3,1.056E3,1.27E3,6.65E2,1.294E3,6.64E2,6.59E2,6.66E2,1.654E3,6.66E2,3.9E2,9.87E2,2.83E2,2.68E2,3.97E2,6.45E2,6.49E2,3.86E2,2.78E2,2.7E2,3.89E2,4.19E2,2.47E2,8.2E2,8.34E2,1.69E2,4.97E2,1.92E2,1.98E2,7.01E2,2.86E2,2.26E2,5.7E1,1.18E2,1.5E2,2.37E2,1.6E2,2.68E2,3.77E2,3.35E2,3.14E2,9.5E1,2.91E2,9.2E1,1.86E2,3.8E1,2.32E2,2.68E2,1.21E2,1.99E2,2.2E2,2.01E2,4.6E1,3.97E2,4.23E2,5.21E2,3.13E2,1.5E1,1.54E2,1.7E1,4.8E2,4.35E2,2.66E2,1E0,2.85E2,2E0,1.16E2,1.36E2,1.4E1,8.4E1,1.53E2,1.54E2,6E0,4.1E1,2.27E2,3E2,7.7E1,1.09E2,2.26E2,2.44E2,7E1,1E0,9.4E1,2.07E2,8.4E1,1E1,8.2E1,1.5E2,3.6E1,2.3E1,1.5E1,6.8E1,1.64E2,6.7E1,2.01E2,1.04E2,1.7E1,2.19E2,1E0,2E2,1E0,2E0,4.4E1,2.31E2,2.9E2,2.46E2,6.7E1],"tree_param":{"num_deleted":"0","num_feature":"15","num_nodes":"113","size_leaf_vector":"1"}},{"base_weights":[9.138726E-3,1.0362235E0,-1.2216725E0,1.5426332E0,4.4123724E-1,-6.703509E-1,-1.5384341E0,1.6619949E0,1.2359735E0,8.8347226E-1,2.2584891E-1,-4.5173207E-1,-8.9563316E-1,-1.2679226E0,-1.6469531E0,1.7357789E0,1.5508853E0,6.410809E-2,1.1780863E0,9.386494E-1,7.939411E-1,4.3639982E-1,1.1189841E-2,-4.0521157E-1,-5.7697487E-1,-9.780388E-1,-8.277064E-1,-1.1730253E0,-1.3075777E0,-1.5177131E0,-1.7327961E0,9.2874736E-2,1.6770769E0,1.567941E0,1.3225513E0,1.1777508E-2,1.1803968E0,5.439277E-1,9.494276E-1,3.8497192E-1,8.072304E-1,4.433522E-1,-7.513418E-2,8.51017E-2,-5.3850815E-2,-3.2601517E-1,-4.4575322E-1,-4.7829535E-2,-5.6075513E-1,-9.803499E-1,-7.753074E-3,-8.3160114E-1,-2.683072E-1,-5.87748E-2,-1.666311E-2,-1.31057E0,-2.0694805E-2,-7.082645E-2,-1.5711554E0,-8.131315E-2,-8.814268E-2,2.6071383E-2,8.398374E-2,2.277044E-2,7.844912E-2,1.2109804E-2,6.6918276E-2,2.1547033E-2,5.919549E-2,3.5216663E-2,-1.1276746E-2,4.632012E-2,5.6113284E-2,2.4037907E-2,6.0900053E-5,4.055263E-2,-3.4213902E-3,2.5722494E-2,2.0239137E-2,-9.7467275E-3,1.3468909E-2,4.9737925E-3,-1.2768351E-2,-1.1943683E-2,-1.4211386E-3,-2.199865E-2,-1.3785242E-2,-2.2999382E-2,-8.831566E-3,-3.031827E-2,-2.2324042E-2,-4.9233582E-2,-2.1312973E-2,-4.193401E-2,-2.3037976E-2,-1.5405543E-2,-3.7224055E-3,-3.268493E-2,-6.5745406E-2,-7.870198E-2,-8.635807E-3],"categories":[],"categories_nodes":[],"categories_segments":[],"categories_sizes":[],"default_left":[0,0,0,0,0,0,0,0,0,0,0,0,0,0,0,0,0,0,0,0,0,0,0,0,0,0,0,0,0,0,0,0,0,0,0,0,0,0,0,0,0,0,0,0,0,0,0,0,0,0,0,0,0,0,0,0,0,0,0,0,0,0,0,0,0,0,0,0,0,0,0,0,0,0,0,0,0,0,0,0,0,0,0,0,0,0,0,0,0,0,0,0,0,0,0,0,0,0,0,0,0],"id":1,"left_children":[1,3,5,7,9,11,13,15,17,19,21,23,25,27,29,31,33,-1,35,37,39,41,43,45,47,49,51,53,55,57,59,-1,61,63,65,-1,67,69,71,73,75,77,79,81,83,85,87,-1,89,91,-1,93,95,-1,-1,97,-1,-1,99,-1,-1,-1,-1,-1,-1,-1,-1,-1,-1,-1,-1,-1,-1,-1,-1,-1,-1,-1,-1,-1,-1,-1,-1,-1,-1,-1,-1,-1,-1,-1,-1,-1,-1,-1,-1,-1,-1,-1,-1,-1,-1],"loss_changes":[1.0115711E4,1.3136196E3,6.346494E2,8.418359E1,1.9097177E2,6.509924E1,6.575293E1,1.11875E1,2.6483154E-1,2.5004272E0,6.105581E1,3.7106476E0,2.8512573E0,9.724121E-1,1.5631348E1,4.093994E0,5.9399414E-1,0E0,3.9050293E-1,1.1896057E0,1.0860138E0,2.4587555E0,3.2254577E0,1.4504166E0,5.780525E-1,3.9959717E-1,5.720978E-1,3.567505E-2,6.9036865E-1,1.3704834E0,2.7734375E-1,0E0,1.1987305E0,1.7822266E-2,5.984421E-1,0E0,2.954712E-1,1.7633898E0,5.0839233E-1,3.6699784E-1,8.855591E-1,1.6372528E0,4.652382E-1,1.5621021E0,1.6728126E0,8.6481476E-1,1.1675949E0,0E0,6.465912E-1,2.7227783E-1,0E0,5.6388855E-1,7.926911E-3,0E0,0E0,4.4836426E-1,0E0,0E0,1.446167E0,0E0,0E0,0E0,0E0,0E0,0E0,0E0,0E0,0E0,0E0,0E0,0E0,0E0,0E0,0E0,0E0,0E0,0E0,0E0,0E0,0E0,0E0,0E0,0E0,0E0,0E0,0E0,0E0,0E0,0E0,0E0,0E0,0E0,0E0,0E0,0E0,0E0,0E0,0E0,0E0,0E0,0E0],"parents":[2147483647,0,0,1,1,2,2,3,3,4,4,5,5,6,6,7,7,8,8,9,9,10,10,11,11,12,12,13,13,14,14,15,15,16,16,18,18,19,19,20,20,21,21,22,22,23,23,24,24,25,25,26,26,27,27,28,28,29,29,30,30,32,32,33,33,34,34,36,36,37,37,38,38,39,39,40,40,41,41,42,42,43,43,44,44,45,45,46,46,48,48,49,49,51,51,52,52,55,55,58,58],"right_children":[2,4,6,8,10,12,14,16,18,20,22,24,26,28,30,32,34,-1,36,38,40,42,44,46,48,50,52,54,56,58,60,-1,62,64,66,-1,68,70,72,74,76,78,80,82,84,86,88,-1,90,92,-1,94,96,-1,-1,98,-1,-1,100,-1,-1,-1,-1,-1,-1,-1,-1,-1,-1,-1,-1,-1,-1,-1,-1,-1,-1,-1,-1,-1,-1,-1,-1,-1,-1,-1,-1,-1,-1,-1,-1,-1,-1,-1,-1,-1,-1,-1,-1,-1,-1],"split_conditions":[2.5881904E-1,-5E-1,7.0710677E-1,-7.0710677E-1,-2.5881904E-1,5E-1,8.660254E-1,-8.660254E-1,1.194E2,3.104E1,-1.8369701E-16,3.026E1,7E0,2.827E1,9.659258E-1,9.75E1,1.591E2,6.410809E-2,1.3E-1,6.44E1,1.194E2,1.46E2,2.981E1,2.887E1,6.94E1,1.351E2,8.75E1,1.387E2,4.16E-2,2.815E1,2.774E1,9.2874736E-2,6.15E1,7.79E1,2.9E-1,1.1777508E-2,3.005E1,6.25E1,1.2E1,1.147E2,1.626E2,1.039E2,8.005E0,2.392E2,4.78E-1,7.595E0,1.265E2,-4.7829535E-2,1.165E2,7.83E0,-7.753074E-3,2.79E-2,1.137E2,-5.87748E-2,-1.666311E-2,3.17E1,-2.0694805E-2,-7.082645E-2,1.366E2,-8.131315E-2,-8.814268E-2,2.6071383E-2,8.398374E-2,2.277044E-2,7.844912E-2,1.2109804E-2,6.6918276E-2,2.1547033E-2,5.919549E-2,3.5216663E-2,-1.1276746E-2,4.632012E-2,5.6113284E-2,2.4037907E-2,6.0900053E-5,4.055263E-2,-3.4213902E-3,2.5722494E-2,2.0239137E-2,-9.7467275E-3,1.3468909E-2,4.9737925E-3,-1.2768351E-2,-1.1943683E-2,-1.4211386E-3,-2.199865E-2,-1.3785242E-2,-2.2999382E-2,-8.831566E-3,-3.031827E-2,-2.2324042E-2,-4.9233582E-2,-2.1312973E-2,-4.193401E-2,-2.3037976E-2,-1.5405543E-2,-3.7224055E-3,-3.268493E-2,-6.5745406E-2,-7.870198E-2,-8.635807E-3],"split_indices":[13,13,13,13,13,13,13,13,6,0,13,0,14,0,13,10,6,0,9,4,10,6,0,0,4,3,6,3,8,0,0,0,4,3,9,0,0,4,14,10,6,10,2,10,9,2,4,0,3,2,0,8,3,0,0,10,0,0,4,0,0,0,0,0,0,0,0,0,0,0,0,0,0,0,0,0,0,0,0,0,0,0,0,0,0,0,0,0,0,0,0,0,0,0,0,0,0,0,0,0,0],"split_type":[0,0,0,0,0,0,0,0,0,0,0,0,0,0,0,0,0,0,0,0,0,0,0,0,0,0,0,0,0,0,0,0,0,0,0,0,0,0,0,0,0,0,0,0,0,0,0,0,0,0,0,0,0,0,0,0,0,0,0,0,0,0,0,0,0,0,0,0,0,0,0,0,0,0,0,0,0,0,0,0,0,0,0,0,0,0,0,0,0,0,0,0,0,0,0,0,0,0,0,0,0],"sum_hessian":[8E3,4.361E3,3.639E3,2.355E3,2.006E3,1.329E3,2.31E3,1.692E3,6.63E2,6.56E2,1.35E3,6.76E2,6.53E2,6.65E2,1.645E3,1.008E3,6.84E2,3.57E2,3.06E2,4E2,2.56E2,6.81E2,6.69E2,4.96E2,1.8E2,2.89E2,3.64E2,2.05E2,4.6E2,6.64E2,9.81E2,3.18E2,6.9E2,6.31E2,5.3E1,1E0,3.05E2,1.2E1,3.88E2,9E0,2.47E2,6.72E2,9E0,3.13E2,3.56E2,1.71E2,3.25E2,5E0,1.75E2,2.88E2,1E0,3.61E2,3E0,2.04E2,1E0,4.58E2,2E0,2.39E2,4.25E2,2.28E2,7.53E2,2E0,6.88E2,1E0,6.3E2,1E0,5.2E1,2E0,3.03E2,1E1,2E0,3.48E2,4E1,7E0,2E0,2.46E2,1E0,2.32E2,4.4E2,7E0,2E0,3.01E2,1.2E1,4.2E1,3.14E2,5E1,1.21E2,3.08E2,1.7E1,1.22E2,5.3E1,2.85E2,3E0,3.53E2,8E0,2E0,1E0,4E0,4.54E2,4.24E2,1E0],"tree_param":{"num_deleted":"0","num_feature":"15","num_nodes":"101","size_leaf_vector":"1"}},{"base_weights":[9.633016E-3,9.919473E-1,-1.1686026E0,1.4679121E0,4.2734927E-1,-6.4196277E-1,-1.4664867E0,1.5833987E0,1.1833085E0,8.3573735E-1,2.1579784E-1,-4.2226577E-1,-8.6508185E-1,-1.200769E0,-1.5737273E0,1.6570206E0,1.4718149E0,1.2527225E0,1.1251816E0,8.8368887E-1,7.6433796E-1,4.1990212E-1,1.01104295E-2,-2.743652E-1,-4.6904522E-1,-7.437033E-1,-9.1171235E-1,-2.4798924E-2,-1.2032063E0,-1.4558625E0,-1.6501122E0,1.7300185E0,7.8129135E-2,1.5502365E0,6.969489E-2,1.5943766E-2,1.2578852E0,1.1872298E0,1.0701184E0,5.493128E-1,8.944492E-1,7.693377E-1,2.282722E-1,4.8650354E-1,3.5463178E-1,1.9997187E-1,-1.7172843E-2,-5.299499E-2,-3.0361193E-1,-4.7365814E-1,-1.0305405E-2,-7.4825513E-1,2.345693E-3,-8.3608913E-1,-9.5353746E-1,-1.1328185E0,-1.2445947E0,-6.998295E-2,-1.5308901E0,-7.647147E-2,-8.426885E-2,8.697378E-2,5.7935257E-2,2.1559214E-2,7.7617645E-2,3.6872637E-2,6.321031E-2,5.953161E-2,1.5305388E-2,1.5491979E-2,5.3794187E-2,-1.8586755E-3,3.495161E-2,4.535637E-2,3.3805218E-2,1.3067031E-2,3.869814E-2,-3.3358575E-3,1.7442053E-2,2.5940359E-2,1.6526064E-2,1.8261543E-2,-3.4935635E-3,1.2486837E-2,-1.9480148E-3,-3.557344E-4,-1.5450713E-2,-1.6594375E-2,6.135385E-3,-1.8699609E-2,-1.1186576E-2,-2.1797273E-2,-2.738986E-2,-9.80103E-3,3.3020878E-3,-3.784879E-2,-1.8168991E-2,-4.223179E-2,-3.5116752E-3,-1.5112079E-2,-4.796362E-2,-5.675478E-2,-1.3746536E-2,-3.1155711E-2,-6.253796E-2,-2.6088668E-2,-7.682475E-2],"categories":[],"categories_nodes":[],"categories_segments":[],"categories_sizes":[],"default_left":[0,0,0,0,0,0,0,0,0,0,0,0,0,0,0,0,0,0,0,0,0,0,0,0,0,0,0,0,0,0,0,0,0,0,0,0,0,0,0,0,0,0,0,0,0,0,0,0,0,0,0,0,0,0,0,0,0,0,0,0,0,0,0,0,0,0,0,0,0,0,0,0,0,0,0,0,0,0,0,0,0,0,0,0,0,0,0,0,0,0,0,0,0,0,0,0,0,0,0,0,0,0,0,0,0,0,0],"id":2,"left_children":[1,3,5,7,9,11,13,15,17,19,21,23,25,27,29,31,33,35,37,39,41,43,45,47,49,51,53,-1,55,57,59,61,-1,63,-1,-1,65,67,69,71,73,75,77,79,81,83,85,87,89,91,93,95,-1,97,99,101,103,-1,105,-1,-1,-1,-1,-1,-1,-1,-1,-1,-1,-1,-1,-1,-1,-1,-1,-1,-1,-1,-1,-1,-1,-1,-1,-1,-1,-1,-1,-1,-1,-1,-1,-1,-1,-1,-1,-1,-1,-1,-1,-1,-1,-1,-1,-1,-1,-1,-1],"loss_changes":[9.189738E3,1.1629683E3,5.653867E2,7.533301E1,1.7105472E2,6.3652893E1,6.379297E1,1.1263672E1,1.3422241E0,1.6390076E0,5.4865814E1,4.4376526E0,2.9839478E0,5.4907227E-1,1.235376E1,4.1696777E0,1.9453125E0,1.0549316E0,3.125E-2,9.406433E-1,5.7214355E-1,2.679161E0,3.380821E0,1.0262823E0,1.0531921E0,7.0085907E-1,6.672058E-1,0E0,5.244751E-1,6.1083984E-1,1.6228027E0,9.724121E-1,0E0,1.027832E-1,0E0,0E0,5.4626465E-2,1.4520264E-1,5.9588623E-1,1.3431106E0,4.496765E-1,4.4621277E-1,1.6553974E-1,1.4510117E0,1.532795E0,9.847448E-1,1.6739068E0,1.0207683E0,7.146511E-1,1.1452026E0,9.801851E-2,3.4249878E-1,0E0,1.0730515E0,7.969971E-1,1.9003296E-1,7.8375244E-1,0E0,7.197876E-1,0E0,0E0,0E0,0E0,0E0,0E0,0E0,0E0,0E0,0E0,0E0,0E0,0E0,0E0,0E0,0E0,0E0,0E0,0E0,0E0,0E0,0E0,0E0,0E0,0E0,0E0,0E0,0E0,0E0,0E0,0E0,0E0,0E0,0E0,0E0,0E0,0E0,0E0,0E0,0E0,0E0,0E0,0E0,0E0,0E0,0E0,0E0,0E0],"parents":[2147483647,0,0,1,1,2,2,3,3,4,4,5,5,6,6,7,7,8,8,9,9,10,10,11,11,12,12,13,13,14,14,15,15,16,16,17,17,18,18,19,19,20,20,21,21,22,22,23,23,24,24,25,25,26,26,28,28,29,29,30,30,31,31,33,33,36,36,37,37,38,38,39,39,40,40,41,41,42,42,43,43,44,44,45,45,46,46,47,47,48,48,49,49,50,50,51,51,53,53,54,54,55,55,56,56,58,58],"right_children":[2,4,6,8,10,12,14,16,18,20,22,24,26,28,30,32,34,36,38,40,42,44,46,48,50,52,54,-1,56,58,60,62,-1,64,-1,-1,66,68,70,72,74,76,78,80,82,84,86,88,90,92,94,96,-1,98,100,102,104,-1,106,-1,-1,-1,-1,-1,-1,-1,-1,-1,-1,-1,-1,-1,-1,-1,-1,-1,-1,-1,-1,-1,-1,-1,-1,-1,-1,-1,-1,-1,-1,-1,-1,-1,-1,-1,-1,-1,-1,-1,-1,-1,-1,-1,-1,-1,-1,-1,-1],"split_conditions":[2.5881904E-1,-5E-1,7.0710677E-1,-7.0710677E-1,-2.5881904E-1,5E-1,8.660254E-1,-8.660254E-1,1.084E2,3.092E1,-1.8369701E-16,2.887E1,2.23E1,3.17E1,9.659258E-1,2.422E1,3.11E1,1.3E-1,1.415E2,6.64E1,1.607E2,2.36E1,2.889E1,5.86E1,7.885E0,1.036E0,1.391E2,-2.4798924E-2,2.847E1,2.887E1,2.774E1,3.235E1,7.8129135E-2,1.3E-1,6.969489E-2,1.5943766E-2,1.75E-1,2.747E1,3.07E-1,4.84E-1,2.361E2,8.14E1,3.134E1,2.225E2,1.466E2,1.208E2,3.148E1,4.78E1,-8.660254E-1,7.77E0,9.53E1,1.337E0,2.345693E-3,2.675E1,8.14E1,2.683E1,2.044E1,-6.998295E-2,2.191E1,-7.647147E-2,-8.426885E-2,8.697378E-2,5.7935257E-2,2.1559214E-2,7.7617645E-2,3.6872637E-2,6.321031E-2,5.953161E-2,1.5305388E-2,1.5491979E-2,5.3794187E-2,-1.8586755E-3,3.495161E-2,4.535637E-2,3.3805218E-2,1.3067031E-2,3.869814E-2,-3.3358575E-3,1.7442053E-2,2.5940359E-2,1.6526064E-2,1.8261543E-2,-3.4935635E-3,1.2486837E-2,-1.9480148E-3,-3.557344E-4,-1.5450713E-2,-1.6594375E-2,6.135385E-3,-1.8699609E-2,-1.1186576E-2,-2.1797273E-2,-2.738986E-2,-9.80103E-3,3.3020878E-3,-3.784879E-2,-1.8168991E-2,-4.223179E-2,-3.5116752E-3,-1.5112079E-2,-4.796362E-2,-5.675478E-2,-1.3746536E-2,-3.1155711E-2,-6.253796E-2,-2.6088668E-2,-7.682475E-2],"split_indices":[13,13,13,13,13,13,13,13,4,0,13,0,1,10,13,1,0,9,10,4,6,1,0,10,2,7,10,0,0,0,0,0,0,9,0,0,7,1,9,7,10,3,0,10,6,3,0,10,12,2,3,9,0,1,3,1,1,0,1,0,0,0,0,0,0,0,0,0,0,0,0,0,0,0,0,0,0,0,0,0,0,0,0,0,0,0,0,0,0,0,0,0,0,0,0,0,0,0,0,0,0,0,0,0,0,0,0],"split_type":[0,0,0,0,0,0,0,0,0,0,0,0,0,0,0,0,0,0,0,0,0,0,0,0,0,0,0,0,0,0,0,0,0,0,0,0,0,0,0,0,0,0,0,0,0,0,0,0,0,0,0,0,0,0,0,0,0,0,0,0,0,0,0,0,0,0,0,0,0,0,0,0,0,0,0,0,0,0,0,0,0,0,0,0,0,0,0,0,0,0,0,0,0,0,0,0,0,0,0,0,0,0,0,0,0,0,0],"sum_hessian":[7.938E3,4.329E3,3.609E3,2.348E3,1.981E3,1.305E3,2.304E3,1.667E3,6.81E2,6.75E2,1.306E3,6.59E2,6.46E2,6.66E2,1.638E3,9.96E2,6.71E2,3.01E2,3.8E2,3.97E2,2.78E2,6.55E2,6.51E2,1.6E2,4.99E2,1.84E2,4.62E2,3E0,6.63E2,6.52E2,9.86E2,5.52E2,4.44E2,3.25E2,3.46E2,2E0,2.99E2,1.69E2,2.11E2,1.4E1,3.83E2,2.75E2,3E0,3.21E2,3.34E2,8.1E1,5.7E2,1.9E1,1.41E2,4.94E2,5E0,1.83E2,1E0,1.72E2,2.9E2,2.56E2,4.07E2,3.84E2,2.68E2,2.33E2,7.53E2,5.41E2,1.1E1,1E0,3.24E2,5E0,2.94E2,1.68E2,1E0,2E0,2.09E2,3E0,1.1E1,3.59E2,2.4E1,3E0,2.72E2,1E0,2E0,2.64E2,5.7E1,3.26E2,8E0,6.7E1,1.4E1,5.52E2,1.8E1,7E0,1.2E1,7.3E1,6.8E1,3.32E2,1.62E2,1E0,4E0,1.78E2,5E0,1.7E2,2E0,3E0,2.87E2,2.55E2,1E0,5E0,4.02E2,2E0,2.66E2],"tree_param":{"num_deleted":"0","num_feature":"15","num_nodes":"107","size_leaf_vector":"1"}},{"base_weights":[2.290877E-3,9.440833E-1,-1.103828E0,1.3973048E0,4.0900162E-1,-6.096565E-1,-1.3923829E0,1.1949935E0,1.5646673E0,8.1452817E-1,2.0469494E-1,-4.0468124E-1,-8.0343205E-1,-1.5414494E0,-1.2106949E0,1.3186058E0,9.8439467E-1,1.6346012E0,1.3000609E0,6.21438E-1,9.1319084E-1,2.3297783E-2,3.8995734E-1,-5.358036E-1,-2.1448784E-1,-9.198569E-1,-6.3372004E-1,-1.3140161E0,-1.6028204E0,-1.0143323E0,-1.3181509E0,1.1701959E0,1.387395E0,8.462742E-1,1.0399772E0,1.5455014E0,9.058138E-2,1.2381825E0,7.656088E-2,5.12996E-1,6.889328E-1,8.1980014E-1,1.0286931E0,2.0510875E-1,-9.661069E-2,5.0009036E-1,2.1245411E-1,-7.580635E-1,-4.6756712E-1,-2.61649E-1,-7.795425E-2,-1.1891412E0,-8.825596E-1,-6.671236E-1,-5.022761E-1,-7.969718E-2,-1.2758301E0,-1.709755E0,-1.5282378E0,-1.0682997E0,-8.116001E-1,-1.4098481E0,-1.2159408E0,3.8528547E-2,5.9594244E-2,4.2829413E-2,6.969317E-2,4.258311E-3,4.2600125E-2,2.439183E-2,5.2211326E-2,8.0055416E-2,7.245227E-2,3.8669985E-2,6.272095E-2,-1.0838899E-2,2.6591558E-2,2.4689114E-2,3.6404222E-2,3.533577E-2,4.3309923E-2,3.3407584E-2,5.235071E-2,5.4809847E-3,1.3504865E-2,-8.7637035E-3,1.7654205E-3,2.232192E-2,3.501349E-2,7.090065E-3,1.8976588E-2,-4.1127335E-2,-2.7875269E-2,-3.1663585E-2,-2.0131541E-2,-1.9896684E-2,-1.0379165E-2,3.1965494E-3,-9.1666E-3,-6.176443E-2,-3.3395916E-2,-4.44692E-2,-2.3385188E-2,-1.809024E-2,-3.4056347E-2,-2.9289827E-2,-1.9351786E-2,-6.409504E-2,-2.9328043E-2,-8.581603E-2,-4.2390328E-2,-7.851371E-2,-7.07864E-2,-4.6760242E-2,-5.4893058E-2,-4.127192E-2,-8.371512E-3,-6.537063E-2,-7.443447E-2,-6.293487E-2,-5.2232545E-2],"categories":[],"categories_nodes":[],"categories_segments":[],"categories_sizes":[],"default_left":[0,0,0,0,0,0,0,0,0,0,0,0,0,0,0,0,0,0,0,0,0,0,0,0,0,0,0,0,0,0,0,0,0,0,0,0,0,0,0,0,0,0,0,0,0,0,0,0,0,0,0,0,0,0,0,0,0,0,0,0,0,0,0,0,0,0,0,0,0,0,0,0,0,0,0,0,0,0,0,0,0,0,0,0,0,0,0,0,0,0,0,0,0,0,0,0,0,0,0,0,0,0,0,0,0,0,0,0,0,0,0,0,0,0,0,0,0,0,0,0,0],"id":3,"left_children":[1,3,5,7,9,11,13,15,17,19,21,23,25,27,29,31,33,35,37,39,41,43,45,47,49,51,53,55,57,59,61,63,65,67,69,71,-1,73,-1,75,77,79,81,83,85,87,89,91,93,95,97,99,101,103,105,-1,107,109,111,113,115,117,119,-1,-1,-1,-1,-1,-1,-1,-1,-1,-1,-1,-1,-1,-1,-1,-1,-1,-1,-1,-1,-1,-1,-1,-1,-1,-1,-1,-1,-1,-1,-1,-1,-1,-1,-1,-1,-1,-1,-1,-1,-1,-1,-1,-1,-1,-1,-1,-1,-1,-1,-1,-1,-1,-1,-1,-1,-1,-1],"loss_changes":[8.308873E3,1.0441643E3,5.221919E2,7.708984E1,1.6363126E2,5.345462E1,6.083203E1,2.629663E1,2.1431885E1,1.2044098E1,4.4216496E1,1.6344566E1,1.3149353E1,1.5592285E1,2.0776245E1,5.1654053E0,2.1600342E0,1.3020508E1,1.9803467E0,1.3080521E0,3.8597717E0,1.4539065E1,1.262014E1,5.560379E0,1.724596E0,3.06839E0,9.2066956E-1,9.059448E-1,5.3146973E0,3.2358093E0,4.602661E0,9.6243286E-1,3.4765625E-1,4.4626617E-1,1.4282227E-1,1.295166E0,0E0,6.824951E-1,0E0,1.3661194E0,6.8722534E-1,6.786041E-1,5.6207275E-1,1.6149006E0,4.1778235E0,3.9941177E0,2.909112E0,7.053642E-1,2.9838562E0,1.3984289E0,1.0732805E0,3.0541992E-1,6.145325E-1,7.15538E-1,3.7002182E-1,0E0,2.816162E-1,8.0859375E-1,5.909424E-1,1.2606812E-1,6.016846E-1,8.721924E-1,1.0726624E0,0E0,0E0,0E0,0E0,0E0,0E0,0E0,0E0,0E0,0E0,0E0,0E0,0E0,0E0,0E0,0E0,0E0,0E0,0E0,0E0,0E0,0E0,0E0,0E0,0E0,0E0,0E0,0E0,0E0,0E0,0E0,0E0,0E0,0E0,0E0,0E0,0E0,0E0,0E0,0E0,0E0,0E0,0E0,0E0,0E0,0E0,0E0,0E0,0E0,0E0,0E0,0E0,0E0,0E0,0E0,0E0,0E0,0E0],"parents":[2147483647,0,0,1,1,2,2,3,3,4,4,5,5,6,6,7,7,8,8,9,9,10,10,11,11,12,12,13,13,14,14,15,15,16,16,17,17,18,18,19,19,20,20,21,21,22,22,23,23,24,24,25,25,26,26,27,27,28,28,29,29,30,30,31,31,32,32,33,33,34,34,35,35,37,37,39,39,40,40,41,41,42,42,43,43,44,44,45,45,46,46,47,47,48,48,49,49,50,50,51,51,52,52,53,53,54,54,56,56,57,57,58,58,59,59,60,60,61,61,62,62],"right_children":[2,4,6,8,10,12,14,16,18,20,22,24,26,28,30,32,34,36,38,40,42,44,46,48,50,52,54,56,58,60,62,64,66,68,70,72,-1,74,-1,76,78,80,82,84,86,88,90,92,94,96,98,100,102,104,106,-1,108,110,112,114,116,118,120,-1,-1,-1,-1,-1,-1,-1,-1,-1,-1,-1,-1,-1,-1,-1,-1,-1,-1,-1,-1,-1,-1,-1,-1,-1,-1,-1,-1,-1,-1,-1,-1,-1,-1,-1,-1,-1,-1,-1,-1,-1,-1,-1,-1,-1,-1,-1,-1,-1,-1,-1,-1,-1,-1,-1,-1,-1,-1],"split_conditions":[2.5881904E-1,-5E-1,7.0710677E-1,2.598E2,-2.5881904E-1,5E-1,2.106E2,-7.0710677E-1,-7.0710677E-1,2.444E2,2.387E2,2.31E2,2.236E2,8.660254E-1,8.660254E-1,2.464E2,2.42E2,2.768E2,2.778E2,2.345E2,2.579E2,-1.8369701E-16,-1.8369701E-16,2.11E2,2.46E2,1.97E2,2.387E2,1.868E2,1.964E2,2.314E2,2.201E2,2.274E2,8E1,1.16E-2,6.58E1,-8.660254E-1,9.058138E-2,1.79E-2,7.656088E-2,6.44E1,9.57E1,1.004E2,6.58E1,2.283E2,2.294E2,2.582E2,2.535E2,1.19E2,8.84E1,8.26E1,9.91E1,1.1E1,1.142E2,2.78E1,1.102E2,-7.969718E-2,2.851E1,1.469E2,1.007E2,3.75E1,9.81E-1,9.659258E-1,2.332E2,3.8528547E-2,5.9594244E-2,4.2829413E-2,6.969317E-2,4.258311E-3,4.2600125E-2,2.439183E-2,5.2211326E-2,8.0055416E-2,7.245227E-2,3.8669985E-2,6.272095E-2,-1.0838899E-2,2.6591558E-2,2.4689114E-2,3.6404222E-2,3.533577E-2,4.3309923E-2,3.3407584E-2,5.235071E-2,5.4809847E-3,1.3504865E-2,-8.7637035E-3,1.7654205E-3,2.232192E-2,3.501349E-2,7.090065E-3,1.8976588E-2,-4.1127335E-2,-2.7875269E-2,-3.1663585E-2,-2.0131541E-2,-1.9896684E-2,-1.0379165E-2,3.1965494E-3,-9.1666E-3,-6.176443E-2,-3.3395916E-2,-4.44692E-2,-2.3385188E-2,-1.809024E-2,-3.4056347E-2,-2.9289827E-2,-1.9351786E-2,-6.409504E-2,-2.9328043E-2,-8.581603E-2,-4.2390328E-2,-7.851371E-2,-7.07864E-2,-4.6760242E-2,-5.4893058E-2,-4.127192E-2,-8.371512E-3,-6.537063E-2,-7.443447E-2,-6.293487E-2,-5.2232545E-2],"split_indices":[13,13,13,11,13,13,11,13,13,11,11,11,11,13,13,11,11,11,11,11,11,13,13,11,11,11,11,11,11,11,11,11,4,8,4,13,0,8,0,4,4,4,4,11,11,11,11,4,4,4,10,14,6,0,3,0,1,4,4,6,7,13,11,0,0,0,0,0,0,0,0,0,0,0,0,0,0,0,0,0,0,0,0,0,0,0,0,0,0,0,0,0,0,0,0,0,0,0,0,0,0,0,0,0,0,0,0,0,0,0,0,0,0,0,0,0,0,0,0,0,0],"split_type":[0,0,0,0,0,0,0,0,0,0,0,0,0,0,0,0,0,0,0,0,0,0,0,0,0,0,0,0,0,0,0,0,0,0,0,0,0,0,0,0,0,0,0,0,0,0,0,0,0,0,0,0,0,0,0,0,0,0,0,0,0,0,0,0,0,0,0,0,0,0,0,0,0,0,0,0,0,0,0,0,0,0,0,0,0,0,0,0,0,0,0,0,0,0,0,0,0,0,0,0,0,0,0,0,0,0,0,0,0,0,0,0,0,0,0,0,0,0,0,0,0],"sum_hessian":[7.974E3,4.307E3,3.667E3,2.331E3,1.976E3,1.353E3,2.314E3,1.059E3,1.272E3,6.61E2,1.315E3,6.59E2,6.94E2,1.267E3,1.047E3,6.64E2,3.95E2,1.002E3,2.7E2,2.26E2,4.35E2,6.65E2,6.5E2,3.89E2,2.7E2,4.09E2,2.85E2,2.74E2,9.93E2,3.74E2,6.73E2,2.16E2,4.48E2,1.18E2,2.77E2,6.73E2,3.29E2,2.18E2,5.2E1,9E1,1.36E2,2.45E2,1.9E2,2.64E2,4.01E2,4E2,2.5E2,8.9E1,3E2,2E2,7E1,4.6E1,3.63E2,2.24E2,6.1E1,2.8E1,2.46E2,3.99E2,5.94E2,2.92E2,8.2E1,3.48E2,3.25E2,1.3E1,2.03E2,7E0,4.41E2,1E0,1.17E2,3E0,2.74E2,4.17E2,2.56E2,9E0,2.09E2,2E0,8.8E1,2.5E1,1.11E2,7.6E1,1.69E2,1.1E1,1.79E2,1.08E2,1.56E2,2.51E2,1.5E2,3.18E2,8.2E1,1.77E2,7.3E1,6.5E1,2.4E1,8.2E1,2.18E2,5.5E1,1.45E2,3E1,4E1,4.1E1,5E0,3.56E2,7E0,1.1E1,2.13E2,3.3E1,2.8E1,2.43E2,3E0,3.95E2,4E0,4.23E2,1.71E2,5.9E1,2.33E2,8E1,2E0,1.59E2,1.89E2,2.55E2,7E1],"tree_param":{"num_deleted":"0","num_feature":"15","num_nodes":"121","size_leaf_vector":"1"}},{"base_weights":[-1.7784403E-3,8.965683E-1,-1.0622785E0,1.3360802E0,3.8062984E-1,-5.794541E-1,-1.3357756E0,1.4372567E0,1.0789112E0,7.70594E-1,1.9476059E-1,-3.8378277E-1,-7.70464E-1,-1.092371E0,-1.4331537E0,1.4989066E0,1.3418832E0,1.1375798E0,1.0266799E0,8.1792307E-1,6.9603556E-1,3.7958795E-1,5.2075833E-3,-2.7500507E-1,-4.353473E-1,-6.531353E-1,-8.2223964E-1,-1.0358998E0,-1.1767883E0,-1.3224716E0,-1.5053627E0,1.5852028E0,1.4326416E0,6.877959E-2,1.2370714E0,5.648281E-1,5.7264723E-2,1.7439712E-2,1.0313863E0,8.2646555E-1,4.5079413E-1,7.054627E-1,2.5991836E-1,4.144864E-1,3.0273464E-1,7.745404E-2,-6.1240904E-2,-2.9142568E-1,2.5693914E-2,-3.8491943E-1,-4.9605608E-1,-6.617967E-1,-1.6565876E-1,-7.7202916E-1,-8.8117546E-1,-1.0385195E0,-1.6671961E-2,-1.1820749E0,-1.631763E-2,-1.2578046E0,-1.3981081E0,-7.272203E-2,-1.5672393E0,3.6447342E-2,7.947659E-2,1.410352E-2,7.1707085E-2,6.2164098E-2,2.3638852E-2,3.714496E-2,6.956196E-3,5.163032E-2,1.4895523E-2,3.8907763E-2,4.3671377E-2,3.1971943E-2,-1.9596934E-3,3.5482313E-2,6.2232497E-3,1.7628729E-3,2.0979984E-2,1.9483505E-2,2.6662711E-2,1.5804294E-2,-2.0473958E-3,6.0333026E-4,7.2631757E-3,-1.4989731E-2,-2.012085E-3,-1.6199661E-2,-7.943462E-3,1.7649453E-2,-1.2925766E-2,-1.9949762E-2,-1.0260445E-2,-2.5147548E-2,-6.466155E-3,-3.331363E-2,-6.8421126E-3,-9.625536E-3,-1.4562727E-3,-4.122032E-2,-3.2509748E-2,-3.259747E-2,-4.5687694E-2,-5.2563854E-2,-4.002559E-2,-5.925408E-2,-1.00837E-2,-4.8093107E-2,-6.35561E-2,-7.0104145E-2,-5.439532E-3,-2.1420354E-2,-7.8443065E-2],"categories":[],"categories_nodes":[],"categories_segments":[],"categories_sizes":[],"default_left":[0,0,0,0,0,0,0,0,0,0,0,0,0,0,0,0,0,0,0,0,0,0,0,0,0,0,0,0,0,0,0,0,0,0,0,0,0,0,0,0,0,0,0,0,0,0,0,0,0,0,0,0,0,0,0,0,0,0,0,0,0,0,0,0,0,0,0,0,0,0,0,0,0,0,0,0,0,0,0,0,0,0,0,0,0,0,0,0,0,0,0,0,0,0,0,0,0,0,0,0,0,0,0,0,0,0,0,0,0,0,0,0,0,0,0],"id":4,"left_children":[1,3,5,7,9,11,13,15,17,19,21,23,25,27,29,31,33,35,37,39,41,43,45,47,49,51,53,55,57,59,61,63,65,-1,67,69,-1,-1,71,73,75,77,79,81,83,85,87,89,91,93,95,97,99,101,103,105,-1,107,-1,109,111,-1,113,-1,-1,-1,-1,-1,-1,-1,-1,-1,-1,-1,-1,-1,-1,-1,-1,-1,-1,-1,-1,-1,-1,-1,-1,-1,-1,-1,-1,-1,-1,-1,-1,-1,-1,-1,-1,-1,-1,-1,-1,-1,-1,-1,-1,-1,-1,-1,-1,-1,-1,-1,-1],"loss_changes":[7.607283E3,9.7978E2,4.8279688E2,5.917871E1,1.4408975E2,4.9263794E1,5.382666E1,7.81958E0,8.637085E-1,1.696167E0,4.7259678E1,3.5654373E0,3.53302E0,1.9845581E0,1.1324463E1,3.4873047E0,6.512451E-1,6.9195557E-1,7.9196167E-1,8.41156E-1,8.69133E-1,1.7063675E0,3.2067885E0,1.064146E0,1.1683273E0,7.7703094E-1,6.838989E-1,4.100647E-1,7.921448E-1,1.4989014E0,8.7475586E-1,4.2797852E-1,5.965576E-1,0E0,2.2866821E-1,3.5147858E-1,0E0,0E0,1.2756348E-2,1.7565918E-1,1.041832E0,5.1934814E-1,2.3632497E-1,1.1686325E0,1.0086651E0,1.4170908E0,1.7312202E0,8.248882E-1,1.2074965E0,5.429268E-1,4.3561554E-1,3.9284515E-1,1.2723982E-2,1.1039886E0,9.351654E-1,4.003601E-1,0E0,5.274353E-1,0E0,2.3168945E-1,1.3746948E0,0E0,1.3879395E-1,0E0,0E0,0E0,0E0,0E0,0E0,0E0,0E0,0E0,0E0,0E0,0E0,0E0,0E0,0E0,0E0,0E0,0E0,0E0,0E0,0E0,0E0,0E0,0E0,0E0,0E0,0E0,0E0,0E0,0E0,0E0,0E0,0E0,0E0,0E0,0E0,0E0,0E0,0E0,0E0,0E0,0E0,0E0,0E0,0E0,0E0,0E0,0E0,0E0,0E0,0E0,0E0],"parents":[2147483647,0,0,1,1,2,2,3,3,4,4,5,5,6,6,7,7,8,8,9,9,10,10,11,11,12,12,13,13,14,14,15,15,16,16,17,17,18,18,19,19,20,20,21,21,22,22,23,23,24,24,25,25,26,26,27,27,28,28,29,29,30,30,31,31,32,32,34,34,35,35,38,38,39,39,40,40,41,41,42,42,43,43,44,44,45,45,46,46,47,47,48,48,49,49,50,50,51,51,52,52,53,53,54,54,55,55,57,57,59,59,60,60,62,62],"right_children":[2,4,6,8,10,12,14,16,18,20,22,24,26,28,30,32,34,36,38,40,42,44,46,48,50,52,54,56,58,60,62,64,66,-1,68,70,-1,-1,72,74,76,78,80,82,84,86,88,90,92,94,96,98,100,102,104,106,-1,108,-1,110,112,-1,114,-1,-1,-1,-1,-1,-1,-1,-1,-1,-1,-1,-1,-1,-1,-1,-1,-1,-1,-1,-1,-1,-1,-1,-1,-1,-1,-1,-1,-1,-1,-1,-1,-1,-1,-1,-1,-1,-1,-1,-1,-1,-1,-1,-1,-1,-1,-1,-1,-1,-1,-1,-1],"split_conditions":[2.5881904E-1,-5E-1,7.0710677E-1,-7.0710677E-1,-2.5881904E-1,5E-1,8.660254E-1,-8.660254E-1,8.03E0,3.102E1,-1.8369701E-16,2.904E1,2.235E1,2.916E1,9.659258E-1,3.112E1,3.195E1,1.16E-2,1.3E-1,1.045E1,9E0,2.511E1,2.9785E1,9.24E-1,7.755E0,1.337E0,6.545E-1,2.6865E1,4E-2,2.87E1,7.4666667E0,1.11E-2,3.8E-3,6.877959E-2,7E0,1.34E-1,5.7264723E-2,1.7439712E-2,2.934E1,9E0,6.25E1,1.626E2,3.113E1,1.216E2,2.872E1,2.39E-2,2.268E1,1.054E2,2.872E1,1.157E0,9E0,1.064E0,2.861E1,5.36E-1,5.2E1,9.34E-1,-1.6671961E-2,2.893E1,-1.631763E-2,1.36E1,1.412E2,-7.272203E-2,3.73E1,3.6447342E-2,7.947659E-2,1.410352E-2,7.1707085E-2,6.2164098E-2,2.3638852E-2,3.714496E-2,6.956196E-3,5.163032E-2,1.4895523E-2,3.8907763E-2,4.3671377E-2,3.1971943E-2,-1.9596934E-3,3.5482313E-2,6.2232497E-3,1.7628729E-3,2.0979984E-2,1.9483505E-2,2.6662711E-2,1.5804294E-2,-2.0473958E-3,6.0333026E-4,7.2631757E-3,-1.4989731E-2,-2.012085E-3,-1.6199661E-2,-7.943462E-3,1.7649453E-2,-1.2925766E-2,-1.9949762E-2,-1.0260445E-2,-2.5147548E-2,-6.466155E-3,-3.331363E-2,-6.8421126E-3,-9.625536E-3,-1.4562727E-3,-4.122032E-2,-3.2509748E-2,-3.259747E-2,-4.5687694E-2,-5.2563854E-2,-4.002559E-2,-5.925408E-2,-1.00837E-2,-4.8093107E-2,-6.35561E-2,-7.0104145E-2,-5.439532E-3,-2.1420354E-2,-7.8443065E-2],"split_indices":[13,13,13,13,13,13,13,13,2,0,13,0,1,0,13,0,0,8,9,5,14,1,0,7,2,9,7,1,8,0,2,8,8,0,14,7,0,0,1,14,4,6,0,4,1,8,1,4,0,9,14,7,0,7,6,7,0,1,0,6,4,0,4,0,0,0,0,0,0,0,0,0,0,0,0,0,0,0,0,0,0,0,0,0,0,0,0,0,0,0,0,0,0,0,0,0,0,0,0,0,0,0,0,0,0,0,0,0,0,0,0,0,0,0,0],"split_type":[0,0,0,0,0,0,0,0,0,0,0,0,0,0,0,0,0,0,0,0,0,0,0,0,0,0,0,0,0,0,0,0,0,0,0,0,0,0,0,0,0,0,0,0,0,0,0,0,0,0,0,0,0,0,0,0,0,0,0,0,0,0,0,0,0,0,0,0,0,0,0,0,0,0,0,0,0,0,0,0,0,0,0,0,0,0,0,0,0,0,0,0,0,0,0,0,0,0,0,0,0,0,0,0,0,0,0,0,0,0,0,0,0,0,0],"sum_hessian":[7.983E3,4.322E3,3.661E3,2.333E3,1.989E3,1.325E3,2.336E3,1.671E3,6.62E2,6.41E2,1.348E3,6.56E2,6.69E2,6.71E2,1.665E3,1.006E3,6.65E2,3.02E2,3.6E2,3.86E2,2.55E2,6.82E2,6.66E2,2.13E2,4.43E2,2.09E2,4.6E2,4.1E2,2.61E2,6.65E2,1E3,4.27E2,5.79E2,4.94E2,1.71E2,5E0,2.97E2,3E0,3.57E2,3.76E2,1E1,2.49E2,6E0,4.66E2,2.16E2,3.19E2,3.47E2,2.02E2,1.1E1,2.46E2,1.97E2,2.05E2,4E0,2.56E2,2.04E2,4.08E2,2E0,2.59E2,2E0,3.68E2,2.97E2,5.62E2,4.38E2,3E0,4.24E2,1E0,5.78E2,1.69E2,2E0,3E0,2E0,3.56E2,1E0,1.94E2,1.82E2,7E0,3E0,2.47E2,2E0,3E0,3E0,3.89E2,7.7E1,2.08E2,8E0,1.63E2,1.56E2,2.7E1,3.2E2,1.61E2,4.1E1,5E0,6E0,2.27E2,1.9E1,1.93E2,4E0,2.03E2,2E0,3E0,1E0,1.75E2,8.1E1,2.8E1,1.76E2,3.84E2,2.4E1,2.58E2,1E0,1.9E1,3.49E2,2.96E2,1E0,1E0,4.37E2],"tree_param":{"num_deleted":"0","num_feature":"15","num_nodes":"115","size_leaf_vector":"1"}},{"base_weights":[5.452811E-3,8.568621E-1,-1.0001265E0,1.2647859E0,3.6367345E-1,-5.4403055E-1,-1.2637721E0,1.0699725E0,1.4224114E0,7.3328066E-1,1.8460144E-1,-3.6201113E-1,-7.2741336E-1,-1.4121945E0,-1.0904497E0,1.1754416E0,8.8981295E-1,1.3425373E0,1.6067758E0,5.629061E-1,8.396327E-1,3.582327E-1,8.046403E-3,-4.9365175E-1,-2.0916174E-1,-8.447938E-1,-5.582512E-1,-1.2006929E0,-1.4715725E0,-9.224754E-1,-1.1827039E0,9.9407756E-1,1.2310739E0,8.0554515E-1,9.6480745E-1,7.2620116E-2,1.2427537E0,8.486701E-2,7.475296E-2,4.4580206E-1,6.53868E-1,7.7352524E-1,1.0497954E0,2.3838593E-1,5.022913E-1,-1.22017436E-1,1.7004386E-1,-6.958112E-1,-4.2544734E-1,-2.599892E-1,-5.6606185E-2,-5.3289723E-2,-7.919033E-1,-6.8222576E-1,-5.2995104E-1,-1.3365631E0,-5.725636E-2,-7.934349E-2,-1.4009268E0,-9.748589E-1,-6.959789E-1,-1.2123336E0,-9.111328E-1,5.0970335E-2,3.4961797E-2,5.729949E-2,6.388125E-2,4.0957935E-2,1.9416882E-2,4.853305E-2,2.1400142E-2,6.515855E-2,5.8193207E-2,2.7431665E-2,1.7701237E-2,3.5119053E-2,2.1420581E-2,3.993042E-2,3.1207789E-2,8.919954E-3,5.287477E-2,3.604789E-3,1.5118065E-2,2.300771E-2,3.5032477E-2,-1.2702758E-2,-3.3498958E-3,4.8193973E-3,1.9142594E-2,-4.5904752E-2,-3.0742694E-2,-1.489704E-2,-2.4793856E-2,-1.113872E-2,-1.743278E-2,-8.879047E-3,7.832682E-4,-3.808248E-2,-4.8489224E-2,-2.9740287E-2,-4.774707E-2,-5.4779244E-3,-2.6845342E-2,-6.851877E-2,-2.9455787E-2,-6.560319E-2,-7.241949E-2,-5.2426964E-2,-4.454435E-2,-3.8557414E-2,-2.6088143E-2,-5.6987792E-2,-6.386216E-2,-4.6244156E-2,1.6284942E-3],"categories":[],"categories_nodes":[],"categories_segments":[],"categories_sizes":[],"default_left":[0,0,0,0,0,0,0,0,0,0,0,0,0,0,0,0,0,0,0,0,0,0,0,0,0,0,0,0,0,0,0,0,0,0,0,0,0,0,0,0,0,0,0,0,0,0,0,0,0,0,0,0,0,0,0,0,0,0,0,0,0,0,0,0,0,0,0,0,0,0,0,0,0,0,0,0,0,0,0,0,0,0,0,0,0,0,0,0,0,0,0,0,0,0,0,0,0,0,0,0,0,0,0,0,0,0,0,0,0,0,0,0,0,0,0],"id":5,"left_children":[1,3,5,7,9,11,13,15,17,19,21,23,25,27,29,31,33,35,37,39,41,43,45,47,49,51,53,55,57,59,61,63,65,67,69,-1,71,-1,-1,73,75,77,79,81,83,85,87,89,91,93,95,-1,97,99,101,103,-1,-1,105,107,109,111,113,-1,-1,-1,-1,-1,-1,-1,-1,-1,-1,-1,-1,-1,-1,-1,-1,-1,-1,-1,-1,-1,-1,-1,-1,-1,-1,-1,-1,-1,-1,-1,-1,-1,-1,-1,-1,-1,-1,-1,-1,-1,-1,-1,-1,-1,-1,-1,-1,-1,-1,-1,-1],"loss_changes":[6.847565E3,8.7086523E2,4.40261E2,7.125513E1,1.2972214E2,4.4631714E1,5.821875E1,1.9171509E1,1.7089355E1,1.1123962E1,4.055431E1,1.3518784E1,1.2812286E1,1.390625E1,1.5583008E1,5.5161133E0,1.7316589E0,8.258789E0,1.4082031E0,2.3608475E0,4.6341553E0,1.1395988E1,1.3863746E1,4.709076E0,2.4277973E0,3.7497253E0,6.103134E-1,5.758667E-1,5.6777344E0,3.9012756E0,4.4555054E0,4.9702454E-1,5.439453E-1,7.780609E-1,2.2869873E-1,0E0,8.0926514E-1,0E0,0E0,8.627777E-1,1.208477E0,6.330414E-1,4.2192078E-1,3.8718834E0,2.2017822E0,2.6345768E0,4.555745E0,1.0550995E0,2.3128471E0,7.010584E-1,7.0222455E-1,0E0,9.8883057E-1,5.76355E-1,6.137314E-1,1.08815E0,0E0,0E0,6.723633E-1,9.9005127E-1,5.929146E-1,1.4651489E0,9.644089E-1,0E0,0E0,0E0,0E0,0E0,0E0,0E0,0E0,0E0,0E0,0E0,0E0,0E0,0E0,0E0,0E0,0E0,0E0,0E0,0E0,0E0,0E0,0E0,0E0,0E0,0E0,0E0,0E0,0E0,0E0,0E0,0E0,0E0,0E0,0E0,0E0,0E0,0E0,0E0,0E0,0E0,0E0,0E0,0E0,0E0,0E0,0E0,0E0,0E0,0E0,0E0,0E0],"parents":[2147483647,0,0,1,1,2,2,3,3,4,4,5,5,6,6,7,7,8,8,9,9,10,10,11,11,12,12,13,13,14,14,15,15,16,16,17,17,18,18,19,19,20,20,21,21,22,22,23,23,24,24,25,25,26,26,27,27,28,28,29,29,30,30,31,31,32,32,33,33,34,34,36,36,39,39,40,40,41,41,42,42,43,43,44,44,45,45,46,46,47,47,48,48,49,49,50,50,52,52,53,53,54,54,55,55,58,58,59,59,60,60,61,61,62,62],"right_children":[2,4,6,8,10,12,14,16,18,20,22,24,26,28,30,32,34,36,38,40,42,44,46,48,50,52,54,56,58,60,62,64,66,68,70,-1,72,-1,-1,74,76,78,80,82,84,86,88,90,92,94,96,-1,98,100,102,104,-1,-1,106,108,110,112,114,-1,-1,-1,-1,-1,-1,-1,-1,-1,-1,-1,-1,-1,-1,-1,-1,-1,-1,-1,-1,-1,-1,-1,-1,-1,-1,-1,-1,-1,-1,-1,-1,-1,-1,-1,-1,-1,-1,-1,-1,-1,-1,-1,-1,-1,-1,-1,-1,-1,-1,-1,-1],"split_conditions":[2.5881904E-1,-5E-1,7.0710677E-1,2.598E2,-2.5881904E-1,5E-1,2.103E2,-7.0710677E-1,2.768E2,2.46E2,-1.8369701E-16,2.289E2,2.236E2,8.660254E-1,8.660254E-1,2.442E2,2.48E2,-8.660254E-1,-8.660254E-1,2.3605E2,2.666E2,2.439E2,2.364E2,2.106E2,2.454E2,2.009E2,5.47E-1,1.949E2,1.943E2,2.31E2,2.332E2,1.281E2,2.511E2,2.474E2,1.005E1,7.2620116E-2,-7.0710677E-1,8.486701E-2,7.475296E-2,3.102E1,8.75E0,9.05E0,2.04E-1,2.272E2,2.635E2,2.198E2,2.535E2,1.97E2,8.3E0,9.35E0,6.7E-1,-5.3289723E-2,9.75E0,2.991E1,5.66E-1,1.165E0,-5.725636E-2,-7.934349E-2,9.659258E-1,2.187E2,1.185E2,9.659258E-1,9.93E-1,5.0970335E-2,3.4961797E-2,5.729949E-2,6.388125E-2,4.0957935E-2,1.9416882E-2,4.853305E-2,2.1400142E-2,6.515855E-2,5.8193207E-2,2.7431665E-2,1.7701237E-2,3.5119053E-2,2.1420581E-2,3.993042E-2,3.1207789E-2,8.919954E-3,5.287477E-2,3.604789E-3,1.5118065E-2,2.300771E-2,3.5032477E-2,-1.2702758E-2,-3.3498958E-3,4.8193973E-3,1.9142594E-2,-4.5904752E-2,-3.0742694E-2,-1.489704E-2,-2.4793856E-2,-1.113872E-2,-1.743278E-2,-8.879047E-3,7.832682E-4,-3.808248E-2,-4.8489224E-2,-2.9740287E-2,-4.774707E-2,-5.4779244E-3,-2.6845342E-2,-6.851877E-2,-2.9455787E-2,-6.560319E-2,-7.241949E-2,-5.2426964E-2,-4.454435E-2,-3.8557414E-2,-2.6088143E-2,-5.6987792E-2,-6.386216E-2,-4.6244156E-2,1.6284942E-3],"split_indices":[13,13,13,11,13,13,11,13,11,11,13,11,11,13,13,11,11,13,13,11,11,11,11,11,11,11,9,11,11,11,11,3,11,11,5,0,13,0,0,0,5,5,7,11,11,11,11,11,5,5,9,0,5,0,9,9,0,0,13,11,3,13,7,0,0,0,0,0,0,0,0,0,0,0,0,0,0,0,0,0,0,0,0,0,0,0,0,0,0,0,0,0,0,0,0,0,0,0,0,0,0,0,0,0,0,0,0,0,0,0,0,0,0,0,0],"split_type":[0,0,0,0,0,0,0,0,0,0,0,0,0,0,0,0,0,0,0,0,0,0,0,0,0,0,0,0,0,0,0,0,0,0,0,0,0,0,0,0,0,0,0,0,0,0,0,0,0,0,0,0,0,0,0,0,0,0,0,0,0,0,0,0,0,0,0,0,0,0,0,0,0,0,0,0,0,0,0,0,0,0,0,0,0,0,0,0,0,0,0,0,0,0,0,0,0,0,0,0,0,0,0,0,0,0,0,0,0,0,0,0,0,0,0],"sum_hessian":[7.996E3,4.33E3,3.666E3,2.369E3,1.961E3,1.344E3,2.322E3,1.063E3,1.306E3,6.39E2,1.322E3,6.76E2,6.68E2,1.247E3,1.075E3,6.67E2,3.96E2,9.17E2,3.89E2,2.48E2,3.91E2,6.66E2,6.56E2,3.62E2,3.14E2,3.92E2,2.76E2,2.78E2,9.69E2,3.85E2,6.9E2,1.61E2,5.06E2,1.92E2,2.04E2,4.3E2,4.87E2,2.07E2,1.82E2,1.11E2,1.37E2,3.01E2,9E1,3.65E2,3.01E2,3.64E2,2.92E2,8.9E1,2.73E2,2.35E2,7.9E1,7.2E1,3.2E2,4.7E1,2.29E2,7.4E1,2.04E2,3.6E2,6.09E2,3.1E2,7.5E1,6.19E2,7.1E1,1.46E2,1.5E1,1.88E2,3.18E2,1.85E2,7E0,2.01E2,3E0,2.67E2,2.2E2,5E1,6.1E1,1.11E2,2.6E1,2.54E2,4.7E1,1E0,8.9E1,1.02E2,2.63E2,2.51E2,5E1,1.06E2,2.58E2,2.18E2,7.4E1,2.1E1,6.8E1,9.9E1,1.74E2,1.68E2,6.7E1,2.9E1,5E1,2.78E2,4.2E1,3.8E1,9E0,4E0,2.25E2,7E1,4E0,2.22E2,3.87E2,1.59E2,1.51E2,5E1,2.5E1,3.01E2,3.18E2,7E1,1E0],"tree_param":{"num_deleted":"0","num_feature":"15","num_nodes":"115","size_leaf_vector":"1"}},{"base_weights":[2.405762E-3,8.056471E-1,-9.479395E-1,1.1976095E0,3.4572035E-1,-5.1729536E-1,-1.1948593E0,1.0159404E0,1.3434526E0,6.923309E-1,1.7202395E-1,-3.5301223E-1,-6.8327874E-1,-1.3298405E0,-1.036897E0,1.1156904E0,8.382367E-1,1.2723234E0,1.5348032E0,5.26344E-1,8.005664E-1,-1.4487957E-2,3.3511063E-1,-4.8474845E-1,-1.8301462E-1,-7.9928946E-1,-5.160836E-1,-1.1304352E0,-1.3834765E0,-8.764772E-1,-1.1285571E0,8.852493E-1,1.1563491E0,6.795089E-1,8.7977266E-1,1.3304614E0,1.0820596E0,8.126282E-2,1.4187682E0,3.891222E-1,5.9587306E-1,7.055316E-1,8.99846E-1,1.6396084E-1,-1.2839329E-1,4.4769108E-1,1.7318885E-1,-6.744649E-1,-4.1867948E-1,-2.0817442E-1,3.027296E-2,-9.784025E-1,-7.555212E-1,-5.346399E-1,-2.0410697E-1,-6.942751E-2,-1.0960417E0,-7.592877E-2,-1.3274606E0,-9.269148E-1,-6.926478E-1,-1.1671616E0,-9.0352464E-1,4.9136687E-2,3.844331E-2,5.5824E-2,6.401244E-2,2.9540062E-3,3.431773E-2,3.625333E-2,4.519061E-2,6.908807E-2,6.2162247E-2,4.569821E-2,5.5764075E-2,6.432308E-2,7.863488E-2,-1.1326655E-2,2.0266024E-2,3.158739E-2,2.2040246E-2,2.4937356E-2,3.7142847E-2,2.863726E-2,4.582804E-2,-5.3141844E-3,9.506056E-3,-1.2826278E-2,-3.7521787E-3,1.9070154E-2,3.1026592E-2,5.375034E-3,1.8439038E-2,-3.6399987E-2,-2.4176342E-2,-2.7761055E-2,-1.8106746E-2,-1.1793655E-2,-3.2160108E-3,-2.9208355E-3,6.734119E-3,-4.9299616E-2,-1.0798419E-2,-3.8591094E-2,-2.5093088E-2,-2.7341155E-2,-1.504084E-2,1.8834639E-3,-1.4069865E-2,-5.5000495E-2,-2.0595424E-2,-6.64575E-2,-3.6634565E-3,-4.008734E-3,-4.6470996E-2,-2.4330936E-2,-3.6901336E-2,-5.5105317E-2,-6.107823E-2,-4.6265926E-2,-1.9666921E-2],"categories":[],"categories_nodes":[],"categories_segments":[],"categories_sizes":[],"default_left":[0,0,0,0,0,0,0,0,0,0,0,0,0,0,0,0,0,0,0,0,0,0,0,0,0,0,0,0,0,0,0,0,0,0,0,0,0,0,0,0,0,0,0,0,0,0,0,0,0,0,0,0,0,0,0,0,0,0,0,0,0,0,0,0,0,0,0,0,0,0,0,0,0,0,0,0,0,0,0,0,0,0,0,0,0,0,0,0,0,0,0,0,0,0,0,0,0,0,0,0,0,0,0,0,0,0,0,0,0,0,0,0,0,0,0,0,0,0,0,0,0],"id":6,"left_children":[1,3,5,7,9,11,13,15,17,19,21,23,25,27,29,31,33,35,37,39,41,43,45,47,49,51,53,55,57,59,61,63,65,67,69,71,73,-1,75,77,79,81,83,85,87,89,91,93,95,97,99,101,103,105,107,-1,109,-1,111,113,115,117,119,-1,-1,-1,-1,-1,-1,-1,-1,-1,-1,-1,-1,-1,-1,-1,-1,-1,-1,-1,-1,-1,-1,-1,-1,-1,-1,-1,-1,-1,-1,-1,-1,-1,-1,-1,-1,-1,-1,-1,-1,-1,-1,-1,-1,-1,-1,-1,-1,-1,-1,-1,-1,-1,-1,-1,-1,-1,-1],"loss_changes":[6.087769E3,7.7873047E2,3.8782227E2,6.0448242E1,1.1968887E2,3.610736E1,4.8109375E1,1.7552979E1,1.5618652E1,1.1507843E1,4.036902E1,1.4960617E1,1.2427948E1,1.1783691E1,1.4803101E1,5.20697E0,1.9009094E0,9.035645E0,1.3151245E0,2.2964783E0,3.1391296E0,1.2623341E1,1.2828751E1,4.4556046E0,1.5893536E0,2.3103333E0,1.4770889E0,8.750305E-1,5.3929443E0,3.0203552E0,4.852783E0,4.243393E-1,1.3468018E0,3.1197357E-1,4.49234E-1,1.5079346E0,2.4835205E-1,0E0,1.2149658E0,1.0092926E0,6.8948746E-1,1.24263E0,5.247803E-1,1.7310667E0,2.571525E0,4.541008E0,3.7119932E0,6.292877E-1,1.9838905E0,1.0367556E0,3.0418885E-1,2.0948792E-1,9.233856E-1,5.7048035E-1,3.2827836E-1,0E0,2.0657349E-1,0E0,1.3858643E0,5.766907E-1,4.729576E-1,6.958618E-1,7.924042E-1,0E0,0E0,0E0,0E0,0E0,0E0,0E0,0E0,0E0,0E0,0E0,0E0,0E0,0E0,0E0,0E0,0E0,0E0,0E0,0E0,0E0,0E0,0E0,0E0,0E0,0E0,0E0,0E0,0E0,0E0,0E0,0E0,0E0,0E0,0E0,0E0,0E0,0E0,0E0,0E0,0E0,0E0,0E0,0E0,0E0,0E0,0E0,0E0,0E0,0E0,0E0,0E0,0E0,0E0,0E0,0E0,0E0,0E0],"parents":[2147483647,0,0,1,1,2,2,3,3,4,4,5,5,6,6,7,7,8,8,9,9,10,10,11,11,12,12,13,13,14,14,15,15,16,16,17,17,18,18,19,19,20,20,21,21,22,22,23,23,24,24,25,25,26,26,27,27,28,28,29,29,30,30,31,31,32,32,33,33,34,34,35,35,36,36,38,38,39,39,40,40,41,41,42,42,43,43,44,44,45,45,46,46,47,47,48,48,49,49,50,50,51,51,52,52,53,53,54,54,56,56,58,58,59,59,60,60,61,61,62,62],"right_children":[2,4,6,8,10,12,14,16,18,20,22,24,26,28,30,32,34,36,38,40,42,44,46,48,50,52,54,56,58,60,62,64,66,68,70,72,74,-1,76,78,80,82,84,86,88,90,92,94,96,98,100,102,104,106,108,-1,110,-1,112,114,116,118,120,-1,-1,-1,-1,-1,-1,-1,-1,-1,-1,-1,-1,-1,-1,-1,-1,-1,-1,-1,-1,-1,-1,-1,-1,-1,-1,-1,-1,-1,-1,-1,-1,-1,-1,-1,-1,-1,-1,-1,-1,-1,-1,-1,-1,-1,-1,-1,-1,-1,-1,-1,-1,-1,-1,-1,-1,-1,-1],"split_conditions":[2.5881904E-1,-5E-1,7.0710677E-1,2.593E2,-2.5881904E-1,5E-1,2.106E2,-7.0710677E-1,2.778E2,2.46E2,2.364E2,2.3E2,2.236E2,8.660254E-1,8.660254E-1,2.402E2,2.393E2,-7.0710677E-1,-8.660254E-1,2.345E2,2.579E2,-1.8369701E-16,-1.8369701E-16,2.117E2,2.525E2,2.009E2,2.521E2,1.868E2,1.923E2,2.3E2,2.3E2,-8.660254E-1,1.359E2,1.16E-2,3E0,-8.660254E-1,6.42E1,8.126282E-2,9.98E1,6.44E1,8.75E0,8.88E1,6.35E1,2.152E2,2.198E2,2.561E2,2.535E2,1.21E2,8.78E1,1.091E2,2.573E2,1.472E0,1.287E2,2.783E1,2.083E1,-6.942751E-2,2.838E1,-7.592877E-2,1.412E2,3.17E1,2.111E1,9.659258E-1,2.488E2,4.9136687E-2,3.844331E-2,5.5824E-2,6.401244E-2,2.9540062E-3,3.431773E-2,3.625333E-2,4.519061E-2,6.908807E-2,6.2162247E-2,4.569821E-2,5.5764075E-2,6.432308E-2,7.863488E-2,-1.1326655E-2,2.0266024E-2,3.158739E-2,2.2040246E-2,2.4937356E-2,3.7142847E-2,2.863726E-2,4.582804E-2,-5.3141844E-3,9.506056E-3,-1.2826278E-2,-3.7521787E-3,1.9070154E-2,3.1026592E-2,5.375034E-3,1.8439038E-2,-3.6399987E-2,-2.4176342E-2,-2.7761055E-2,-1.8106746E-2,-1.1793655E-2,-3.2160108E-3,-2.9208355E-3,6.734119E-3,-4.9299616E-2,-1.0798419E-2,-3.8591094E-2,-2.5093088E-2,-2.7341155E-2,-1.504084E-2,1.8834639E-3,-1.4069865E-2,-5.5000495E-2,-2.0595424E-2,-6.64575E-2,-3.6634565E-3,-4.008734E-3,-4.6470996E-2,-2.4330936E-2,-3.6901336E-2,-5.5105317E-2,-6.107823E-2,-4.6265926E-2,-1.9666921E-2],"split_indices":[13,13,13,11,13,13,11,13,11,11,11,11,11,13,13,11,11,13,13,11,11,13,13,11,11,11,11,11,11,11,11,13,4,8,14,13,10,0,4,4,5,4,4,11,11,11,11,4,4,4,11,9,4,1,1,0,1,0,4,10,1,13,11,0,0,0,0,0,0,0,0,0,0,0,0,0,0,0,0,0,0,0,0,0,0,0,0,0,0,0,0,0,0,0,0,0,0,0,0,0,0,0,0,0,0,0,0,0,0,0,0,0,0,0,0,0,0,0,0,0,0],"split_type":[0,0,0,0,0,0,0,0,0,0,0,0,0,0,0,0,0,0,0,0,0,0,0,0,0,0,0,0,0,0,0,0,0,0,0,0,0,0,0,0,0,0,0,0,0,0,0,0,0,0,0,0,0,0,0,0,0,0,0,0,0,0,0,0,0,0,0,0,0,0,0,0,0,0,0,0,0,0,0,0,0,0,0,0,0,0,0,0,0,0,0,0,0,0,0,0,0,0,0,0,0,0,0,0,0,0,0,0,0,0,0,0,0,0,0,0,0,0,0,0,0],"sum_hessian":[7.973E3,4.321E3,3.652E3,2.332E3,1.989E3,1.332E3,2.32E3,1.042E3,1.29E3,6.63E2,1.326E3,6.71E2,6.61E2,1.247E3,1.073E3,6.64E2,3.78E2,9.46E2,3.44E2,2.64E2,3.99E2,6.19E2,7.07E2,3.77E2,2.94E2,3.88E2,2.73E2,2.69E2,9.78E2,3.94E2,6.79E2,1.03E2,5.61E2,8.2E1,2.96E2,7.2E2,2.26E2,1.86E2,1.58E2,9.1E1,1.73E2,2.08E2,1.91E2,2.41E2,3.78E2,4.16E2,2.91E2,9.5E1,2.82E2,2.63E2,3.1E1,7.2E1,3.16E2,2.57E2,1.6E1,2.7E1,2.42E2,2.79E2,6.99E2,3.06E2,8.8E1,5.76E2,1.03E2,5.2E1,5.1E1,4.32E2,1.29E2,1E0,8.1E1,4.4E1,2.52E2,4.44E2,2.76E2,4.2E1,1.84E2,9E1,6.8E1,2E0,8.9E1,1.38E2,3.5E1,3.4E1,1.74E2,1.1E1,1.8E2,2.1E1,2.2E2,1.1E2,2.68E2,3.03E2,1.13E2,2.19E2,7.2E1,7.2E1,2.3E1,8E1,2.02E2,2.2E2,4.3E1,1.7E1,1.4E1,7.1E1,1E0,2.95E2,2.1E1,2.43E2,1.4E1,4E0,1.2E1,2.4E2,2E0,6.98E2,1E0,1E0,3.05E2,1.8E1,7E1,2.72E2,3.04E2,9.8E1,5E0],"tree_param":{"num_deleted":"0","num_feature":"15","num_nodes":"121","size_leaf_vector":"1"}},{"base_weights":[-3.5101213E-3,7.5874156E-1,-9.088783E-1,1.1308742E0,3.3046904E-1,-4.9897197E-1,-1.1446861E0,9.888012E-1,1.3057702E0,6.5497166E-1,1.6809303E-1,-3.3145186E-1,-6.659966E-1,-1.2829309E0,-9.8914135E-1,1.0763303E0,8.241655E-1,1.362716E0,1.1018132E0,5.7019275E-1,8.633057E-1,-1.2401328E-3,3.3567974E-1,-4.406893E-1,-1.6284116E-1,-7.6784354E-1,-5.028303E-1,-1.0836699E0,-1.3357012E0,-8.3982074E-1,-1.0703228E0,8.756186E-1,1.1250516E0,7.1757346E-1,9.069952E-1,6.387072E-2,1.4627467E0,9.3022996E-1,1.1370229E0,3.9536145E-1,6.232781E-1,8.339716E-1,1.1356901E0,1.5155476E-1,-9.6227705E-2,4.3226406E-1,1.7971069E-1,-6.379271E-1,-3.816843E-1,-1.7688714E-1,1.4803572E-1,-5.3670514E-2,-7.417678E-1,-5.416229E-1,-3.7811995E-1,-7.466816E-2,-1.0631932E0,-7.2937556E-2,-1.2814622E0,-8.8443613E-1,-6.553229E-1,-1.1496019E0,-9.708518E-1,2.8348774E-2,4.5218863E-2,5.4629177E-2,6.185331E-2,3.711173E-2,2.5187178E-2,4.5441415E-2,1.1263621E-2,7.457044E-2,6.23734E-2,1.4652133E-2,4.7652584E-2,2.9836042E-2,5.727628E-2,-1.0949096E-2,2.0408634E-2,2.4015611E-2,3.291171E-2,2.7860153E-2,4.2356465E-2,2.9719979E-2,6.3329354E-2,6.602182E-5,1.0714136E-2,-1.1059002E-2,-2.0803127E-3,1.9903611E-2,3.230907E-2,5.764943E-3,1.6895734E-2,-3.3175148E-2,-1.1628853E-2,-2.316232E-2,-1.5689375E-2,-1.0151754E-2,-1.5959895E-3,1.3603819E-2,-4.0018223E-3,-2.8355746E-2,-3.841301E-2,-3.577703E-2,-2.5356844E-2,-2.4826963E-2,-1.6291762E-2,-1.4548791E-2,-5.325514E-2,-5.9978504E-2,-6.622256E-2,-4.5195974E-2,-3.4285475E-2,-3.6329824E-2,-2.3472859E-2,-5.5574257E-2,-6.2413186E-2,-5.0603446E-2,-3.9844718E-2],"categories":[],"categories_nodes":[],"categories_segments":[],"categories_sizes":[],"default_left":[0,0,0,0,0,0,0,0,0,0,0,0,0,0,0,0,0,0,0,0,0,0,0,0,0,0,0,0,0,0,0,0,0,0,0,0,0,0,0,0,0,0,0,0,0,0,0,0,0,0,0,0,0,0,0,0,0,0,0,0,0,0,0,0,0,0,0,0,0,0,0,0,0,0,0,0,0,0,0,0,0,0,0,0,0,0,0,0,0,0,0,0,0,0,0,0,0,0,0,0,0,0,0,0,0,0,0,0,0,0,0,0,0,0,0,0,0,0,0],"id":7,"left_children":[1,3,5,7,9,11,13,15,17,19,21,23,25,27,29,31,33,35,37,39,41,43,45,47,49,51,53,55,57,59,61,63,65,67,69,-1,71,73,75,77,79,81,83,85,87,89,91,93,95,97,99,-1,101,103,105,-1,107,-1,109,111,113,115,117,-1,-1,-1,-1,-1,-1,-1,-1,-1,-1,-1,-1,-1,-1,-1,-1,-1,-1,-1,-1,-1,-1,-1,-1,-1,-1,-1,-1,-1,-1,-1,-1,-1,-1,-1,-1,-1,-1,-1,-1,-1,-1,-1,-1,-1,-1,-1,-1,-1,-1,-1,-1,-1,-1,-1,-1],"loss_changes":[5.524397E3,6.9226636E2,3.5310498E2,5.648047E1,1.0643199E2,3.721643E1,4.8661377E1,1.765918E1,1.0566162E1,1.141217E1,3.8282322E1,1.22687E1,1.0731354E1,1.1444092E1,1.2398926E1,7.19989E0,3.3310547E0,5.025879E0,3.439026E-1,4.227005E0,5.9495544E-1,9.767734E0,1.01358185E1,4.4815445E0,1.1833277E0,2.4705963E0,1.0530396E0,6.102295E-1,4.571167E0,2.638916E0,4.4592896E0,9.7843933E-1,1.085022E0,6.9130707E-1,1.07681274E-1,0E0,3.9172363E-1,3.7509155E-1,1.8009949E-1,9.9448776E-1,1.5229187E0,1.7617798E-1,3.8079262E-1,2.4310818E0,2.8232048E0,2.8001175E0,2.6206837E0,7.9946136E-1,1.5990486E0,9.5633125E-1,3.6125863E-1,0E0,1.3271942E0,8.126793E-1,2.406578E-1,0E0,6.317139E-2,0E0,7.980957E-1,5.8821106E-1,7.186775E-1,7.165527E-2,1.487915E0,0E0,0E0,0E0,0E0,0E0,0E0,0E0,0E0,0E0,0E0,0E0,0E0,0E0,0E0,0E0,0E0,0E0,0E0,0E0,0E0,0E0,0E0,0E0,0E0,0E0,0E0,0E0,0E0,0E0,0E0,0E0,0E0,0E0,0E0,0E0,0E0,0E0,0E0,0E0,0E0,0E0,0E0,0E0,0E0,0E0,0E0,0E0,0E0,0E0,0E0,0E0,0E0,0E0,0E0,0E0,0E0],"parents":[2147483647,0,0,1,1,2,2,3,3,4,4,5,5,6,6,7,7,8,8,9,9,10,10,11,11,12,12,13,13,14,14,15,15,16,16,17,17,18,18,19,19,20,20,21,21,22,22,23,23,24,24,25,25,26,26,27,27,28,28,29,29,30,30,31,31,32,32,33,33,34,34,36,36,37,37,38,38,39,39,40,40,41,41,42,42,43,43,44,44,45,45,46,46,47,47,48,48,49,49,50,50,52,52,53,53,54,54,56,56,58,58,59,59,60,60,61,61,62,62],"right_children":[2,4,6,8,10,12,14,16,18,20,22,24,26,28,30,32,34,36,38,40,42,44,46,48,50,52,54,56,58,60,62,64,66,68,70,-1,72,74,76,78,80,82,84,86,88,90,92,94,96,98,100,-1,102,104,106,-1,108,-1,110,112,114,116,118,-1,-1,-1,-1,-1,-1,-1,-1,-1,-1,-1,-1,-1,-1,-1,-1,-1,-1,-1,-1,-1,-1,-1,-1,-1,-1,-1,-1,-1,-1,-1,-1,-1,-1,-1,-1,-1,-1,-1,-1,-1,-1,-1,-1,-1,-1,-1,-1,-1,-1,-1,-1,-1,-1,-1,-1],"split_conditions":[2.5881904E-1,-5E-1,7.0710677E-1,2.639E2,-2.5881904E-1,5E-1,2.099E2,-7.0710677E-1,-7.0710677E-1,2.579E2,2.38E2,2.318E2,2.236E2,8.660254E-1,8.660254E-1,2.442E2,2.48E2,2.755E2,6.2E1,2.3605E2,1.283E2,-1.8369701E-16,-1.8369701E-16,2.103E2,2.582E2,1.937E2,2.387E2,1.815E2,1.923E2,2.314E2,2.201E2,2.274E2,1.346E2,3.231E1,8.25E0,6.387072E-2,9.466666E0,7.15E1,1.34E-1,6.44E1,9.41E1,6.58E1,2.602E2,1.018E2,2.205E2,2.631E2,2.535E2,1.142E0,9.57E1,1.089E2,1.1E1,-5.3670514E-2,2.83E1,5.54E-1,6.18E-1,-7.466816E-2,1.3E-1,-7.2937556E-2,9.659258E-1,1.095E0,1.185E2,1.005E1,2.332E2,2.8348774E-2,4.5218863E-2,5.4629177E-2,6.185331E-2,3.711173E-2,2.5187178E-2,4.5441415E-2,1.1263621E-2,7.457044E-2,6.23734E-2,1.4652133E-2,4.7652584E-2,2.9836042E-2,5.727628E-2,-1.0949096E-2,2.0408634E-2,2.4015611E-2,3.291171E-2,2.7860153E-2,4.2356465E-2,2.9719979E-2,6.3329354E-2,6.602182E-5,1.0714136E-2,-1.1059002E-2,-2.0803127E-3,1.9903611E-2,3.230907E-2,5.764943E-3,1.6895734E-2,-3.3175148E-2,-1.1628853E-2,-2.316232E-2,-1.5689375E-2,-1.0151754E-2,-1.5959895E-3,1.3603819E-2,-4.0018223E-3,-2.8355746E-2,-3.841301E-2,-3.577703E-2,-2.5356844E-2,-2.4826963E-2,-1.6291762E-2,-1.4548791E-2,-5.325514E-2,-5.9978504E-2,-6.622256E-2,-4.5195974E-2,-3.4285475E-2,-3.6329824E-2,-2.3472859E-2,-5.5574257E-2,-6.2413186E-2,-5.0603446E-2,-3.9844718E-2],"split_indices":[13,13,13,11,13,13,11,13,13,11,11,11,11,13,13,11,11,11,10,11,4,13,13,11,11,11,11,11,11,11,11,11,4,0,2,0,5,4,7,4,4,4,11,4,11,11,11,9,4,4,14,0,0,9,9,0,9,0,13,9,3,5,11,0,0,0,0,0,0,0,0,0,0,0,0,0,0,0,0,0,0,0,0,0,0,0,0,0,0,0,0,0,0,0,0,0,0,0,0,0,0,0,0,0,0,0,0,0,0,0,0,0,0,0,0,0,0,0,0],"split_type":[0,0,0,0,0,0,0,0,0,0,0,0,0,0,0,0,0,0,0,0,0,0,0,0,0,0,0,0,0,0,0,0,0,0,0,0,0,0,0,0,0,0,0,0,0,0,0,0,0,0,0,0,0,0,0,0,0,0,0,0,0,0,0,0,0,0,0,0,0,0,0,0,0,0,0,0,0,0,0,0,0,0,0,0,0,0,0,0,0,0,0,0,0,0,0,0,0,0,0,0,0,0,0,0,0,0,0,0,0,0,0,0,0,0,0,0,0,0,0],"sum_hessian":[8.003E3,4.345E3,3.658E3,2.324E3,2.021E3,1.337E3,2.321E3,1.286E3,1.038E3,6.73E2,1.348E3,6.69E2,6.68E2,1.225E3,1.096E3,8.36E2,4.5E2,8.07E2,2.31E2,4.81E2,1.92E2,6.71E2,6.77E2,4.05E2,2.64E2,4.09E2,2.59E2,2.61E2,9.64E2,3.9E2,7.06E2,1.67E2,6.69E2,2.01E2,2.49E2,4.43E2,3.64E2,4.4E1,1.87E2,1.14E2,3.67E2,1.77E2,1.5E1,2.57E2,4.14E2,4.17E2,2.6E2,9.1E1,3.14E2,2.53E2,1.1E1,2.9E1,3.8E2,1.95E2,6.4E1,9E0,2.52E2,2.87E2,6.77E2,3.11E2,7.9E1,3.87E2,3.19E2,1.6E1,1.51E2,5.27E2,1.42E2,1.78E2,2.3E1,2.48E2,1E0,3.16E2,4.8E1,2E0,4.2E1,4E0,1.83E2,2E0,1.12E2,7.5E1,2.92E2,1E1,1.67E2,4E0,1.1E1,7.6E1,1.81E2,1.25E2,2.89E2,3.62E2,5.5E1,1.86E2,7.4E1,8.5E1,6E0,1.4E2,1.74E2,2.14E2,3.9E1,7E0,4E0,5.3E1,3.27E2,2.9E1,1.66E2,1.7E1,4.7E1,1E0,2.51E2,2.43E2,4.34E2,2.8E2,3.1E1,5.5E1,2.4E1,2.88E2,9.9E1,2.54E2,6.5E1],"tree_param":{"num_deleted":"0","num_feature":"15","num_nodes":"119","size_leaf_vector":"1"}},{"base_weights":[-2.621902E-3,7.2550416E-1,-8.584122E-1,1.0870057E0,3.115891E-1,-4.6336937E-1,-1.0869845E0,9.079162E-1,1.2104249E0,6.2677884E-1,1.5364486E-1,-3.0581173E-1,-6.223519E-1,-1.168199E0,-8.707452E-1,9.953014E-1,7.627471E-1,1.3215034E0,1.1058042E0,5.5258995E-1,8.015918E-1,-3.713028E-3,3.0301464E-1,-4.2378864E-1,-1.5172745E-1,-7.776978E-1,-5.108798E-1,-9.897992E-1,-1.2259511E0,-7.392336E-1,-9.5226854E-1,8.4725153E-1,1.022578E0,7.088651E-1,8.897853E-1,1.2684714E0,1.4961414E0,1.0518517E0,1.2808176E0,3.9904043E-1,5.894262E-1,7.7481973E-1,1.1519903E0,1.4356436E-1,-9.497947E-2,3.9886218E-1,1.5279616E-1,-6.193225E-1,-3.618248E-1,-1.9795252E-1,-1.999646E-2,1.1480224E-2,-7.8216314E-1,-5.775975E-1,-4.111525E-1,-1.0756153E0,-9.121341E-1,-6.760894E-2,-1.1757474E0,-8.1200093E-1,-6.652486E-1,-1.0067958E0,-8.056521E-1,4.9360346E-2,3.386792E-2,5.262639E-2,4.6127252E-2,2.032661E-2,3.5909884E-2,4.5343634E-2,2.6294574E-2,1.1012114E-2,6.350507E-2,7.572277E-2,4.5675706E-2,5.6044918E-2,4.821824E-2,2.662908E-2,6.4579286E-2,-5.4392815E-3,2.1127896E-2,2.2875046E-2,3.1176051E-2,4.090422E-2,3.1220997E-2,1.1020112E-2,6.083218E-2,2.691061E-3,1.0952718E-2,-7.7591026E-3,7.020099E-4,1.7578894E-2,2.8066976E-2,4.362875E-3,1.5796758E-2,2.3524284E-3,-3.136247E-2,-2.5696764E-2,-1.4977708E-2,-1.3138741E-2,-7.4462774E-3,-3.0107673E-3,1.1522363E-2,-4.5647837E-2,-3.66326E-2,-2.9786626E-2,-1.1243545E-2,-2.191806E-2,-9.236596E-3,-6.848883E-2,-5.215655E-2,-4.5817822E-2,-1.4641158E-2,-5.4644942E-2,-6.1390817E-2,-2.7786137E-3,-4.0892072E-2,-3.5639938E-2,-2.6631027E-2,-4.6500012E-2,-5.4036345E-2,-4.1225836E-2,-1.6905105E-2],"categories":[],"categories_nodes":[],"categories_segments":[],"categories_sizes":[],"default_left":[0,0,0,0,0,0,0,0,0,0,0,0,0,0,0,0,0,0,0,0,0,0,0,0,0,0,0,0,0,0,0,0,0,0,0,0,0,0,0,0,0,0,0,0,0,0,0,0,0,0,0,0,0,0,0,0,0,0,0,0,0,0,0,0,0,0,0,0,0,0,0,0,0,0,0,0,0,0,0,0,0,0,0,0,0,0,0,0,0,0,0,0,0,0,0,0,0,0,0,0,0,0,0,0,0,0,0,0,0,0,0,0,0,0,0,0,0,0,0,0,0,0,0],"id":8,"left_children":[1,3,5,7,9,11,13,15,17,19,21,23,25,27,29,31,33,35,37,39,41,43,45,47,49,51,53,55,57,59,61,63,65,67,69,71,73,75,77,79,81,83,85,87,89,91,93,95,97,99,101,-1,103,105,107,109,111,-1,113,115,117,119,121,-1,-1,-1,-1,-1,-1,-1,-1,-1,-1,-1,-1,-1,-1,-1,-1,-1,-1,-1,-1,-1,-1,-1,-1,-1,-1,-1,-1,-1,-1,-1,-1,-1,-1,-1,-1,-1,-1,-1,-1,-1,-1,-1,-1,-1,-1,-1,-1,-1,-1,-1,-1,-1,-1,-1,-1,-1,-1,-1,-1],"loss_changes":[4.978755E3,6.456179E2,3.3115283E2,4.9826416E1,1.0016547E2,3.3575623E1,3.9831543E1,1.12161255E1,1.4355103E1,8.272339E0,3.1567684E1,1.2278816E1,1.1204895E1,1.6177979E1,6.146942E0,1.500061E0,1.8266449E0,4.168457E0,5.3285522E0,2.4514923E0,9.6482086E-1,8.817807E0,9.859329E0,4.4284744E0,1.7984672E0,1.4300385E0,2.3773727E0,1.8048096E0,6.4645996E0,8.00354E-1,2.3147583E0,1.6377182E0,4.9700928E-1,4.331665E-1,1.6353607E-1,5.899048E-1,1.8502808E-1,2.2172241E0,6.174011E-1,1.1805325E0,1.4284668E0,7.059784E-1,4.5461273E-1,1.688662E0,2.6603017E0,3.0293503E0,2.8592482E0,5.101967E-1,2.6308212E0,6.5685654E-1,7.995367E-1,0E0,1.1248932E0,1.3564758E0,9.1087914E-1,4.153595E-1,3.226471E-1,0E0,2.6140137E0,4.891281E-1,4.3388748E-1,5.9033203E-1,7.002716E-1,0E0,0E0,0E0,0E0,0E0,0E0,0E0,0E0,0E0,0E0,0E0,0E0,0E0,0E0,0E0,0E0,0E0,0E0,0E0,0E0,0E0,0E0,0E0,0E0,0E0,0E0,0E0,0E0,0E0,0E0,0E0,0E0,0E0,0E0,0E0,0E0,0E0,0E0,0E0,0E0,0E0,0E0,0E0,0E0,0E0,0E0,0E0,0E0,0E0,0E0,0E0,0E0,0E0,0E0,0E0,0E0,0E0,0E0,0E0,0E0],"parents":[2147483647,0,0,1,1,2,2,3,3,4,4,5,5,6,6,7,7,8,8,9,9,10,10,11,11,12,12,13,13,14,14,15,15,16,16,17,17,18,18,19,19,20,20,21,21,22,22,23,23,24,24,25,25,26,26,27,27,28,28,29,29,30,30,31,31,32,32,33,33,34,34,35,35,36,36,37,37,38,38,39,39,40,40,41,41,42,42,43,43,44,44,45,45,46,46,47,47,48,48,49,49,50,50,52,52,53,53,54,54,55,55,56,56,58,58,59,59,60,60,61,61,62,62],"right_children":[2,4,6,8,10,12,14,16,18,20,22,24,26,28,30,32,34,36,38,40,42,44,46,48,50,52,54,56,58,60,62,64,66,68,70,72,74,76,78,80,82,84,86,88,90,92,94,96,98,100,102,-1,104,106,108,110,112,-1,114,116,118,120,122,-1,-1,-1,-1,-1,-1,-1,-1,-1,-1,-1,-1,-1,-1,-1,-1,-1,-1,-1,-1,-1,-1,-1,-1,-1,-1,-1,-1,-1,-1,-1,-1,-1,-1,-1,-1,-1,-1,-1,-1,-1,-1,-1,-1,-1,-1,-1,-1,-1,-1,-1,-1,-1,-1,-1,-1,-1,-1,-1,-1],"split_conditions":[2.5881904E-1,-5E-1,7.0710677E-1,2.579E2,-2.5881904E-1,5E-1,2.181E2,-7.0710677E-1,-8.660254E-1,2.579E2,2.38E2,2.3E2,2.158E2,8.660254E-1,8.660254E-1,2.402E2,2.525E2,2.808E2,2.778E2,2.345E2,1.302E2,-1.8369701E-16,-1.8369701E-16,2.106E2,2.454E2,7.435E0,2.307E2,2.046E2,1.949E2,1.097E2,2.3E2,-8.660254E-1,5E-1,7.84E1,8.165E0,6.15E1,2.753E1,-7.0710677E-1,3.26E1,8.54E1,9.41E1,1.21E2,9.88E1,2.283E2,2.297E2,2.582E2,2.535E2,3.26E1,8.75E1,9.05E1,8.19E-1,1.1480224E-2,2.009E2,1.235E2,2.521E2,1.815E2,3.32E-2,-6.760894E-2,9.659258E-1,3.17E1,2.349E2,9.659258E-1,2.501E2,4.9360346E-2,3.386792E-2,5.262639E-2,4.6127252E-2,2.032661E-2,3.5909884E-2,4.5343634E-2,2.6294574E-2,1.1012114E-2,6.350507E-2,7.572277E-2,4.5675706E-2,5.6044918E-2,4.821824E-2,2.662908E-2,6.4579286E-2,-5.4392815E-3,2.1127896E-2,2.2875046E-2,3.1176051E-2,4.090422E-2,3.1220997E-2,1.1020112E-2,6.083218E-2,2.691061E-3,1.0952718E-2,-7.7591026E-3,7.020099E-4,1.7578894E-2,2.8066976E-2,4.362875E-3,1.5796758E-2,2.3524284E-3,-3.136247E-2,-2.5696764E-2,-1.4977708E-2,-1.3138741E-2,-7.4462774E-3,-3.0107673E-3,1.1522363E-2,-4.5647837E-2,-3.66326E-2,-2.9786626E-2,-1.1243545E-2,-2.191806E-2,-9.236596E-3,-6.848883E-2,-5.215655E-2,-4.5817822E-2,-1.4641158E-2,-5.4644942E-2,-6.1390817E-2,-2.7786137E-3,-4.0892072E-2,-3.5639938E-2,-2.6631027E-2,-4.6500012E-2,-5.4036345E-2,-4.1225836E-2,-1.6905105E-2],"split_indices":[13,13,13,11,13,13,11,13,13,11,11,11,11,13,13,11,11,11,11,11,4,13,13,11,11,2,11,11,11,3,11,13,12,4,2,4,1,13,10,4,4,3,3,11,11,11,11,10,4,4,7,0,11,4,11,11,8,0,13,10,11,13,11,0,0,0,0,0,0,0,0,0,0,0,0,0,0,0,0,0,0,0,0,0,0,0,0,0,0,0,0,0,0,0,0,0,0,0,0,0,0,0,0,0,0,0,0,0,0,0,0,0,0,0,0,0,0,0,0,0,0,0,0],"split_type":[0,0,0,0,0,0,0,0,0,0,0,0,0,0,0,0,0,0,0,0,0,0,0,0,0,0,0,0,0,0,0,0,0,0,0,0,0,0,0,0,0,0,0,0,0,0,0,0,0,0,0,0,0,0,0,0,0,0,0,0,0,0,0,0,0,0,0,0,0,0,0,0,0,0,0,0,0,0,0,0,0,0,0,0,0,0,0,0,0,0,0,0,0,0,0,0,0,0,0,0,0,0,0,0,0,0,0,0,0,0,0,0,0,0,0,0,0,0,0,0,0,0,0],"sum_hessian":[7.988E3,4.316E3,3.672E3,2.303E3,2.013E3,1.347E3,2.325E3,9.43E2,1.36E3,6.71E2,1.342E3,6.78E2,6.69E2,1.687E3,6.38E2,5.85E2,3.58E2,6.54E2,7.06E2,4.74E2,1.97E2,6.54E2,6.88E2,3.83E2,2.95E2,2.77E2,3.92E2,4.17E2,1.27E3,2.48E2,3.9E2,9.6E1,4.89E2,2.56E2,1.02E2,5.08E2,1.46E2,5.45E2,1.61E2,9.4E1,3.8E2,1.86E2,1.1E1,2.5E2,4.04E2,4.19E2,2.69E2,9E1,2.93E2,2.18E2,7.7E1,1E0,2.76E2,2.32E2,1.6E2,1.92E2,2.25E2,3.54E2,9.16E2,1.2E2,1.28E2,2.8E2,1.1E2,5E1,4.6E1,3.69E2,1.2E2,9E0,2.47E2,9.6E1,6E0,1E0,5.07E2,1.4E2,6E0,2.98E2,2.47E2,3E0,1.58E2,4E0,9E1,8.1E1,2.99E2,1.41E2,4.5E1,1E0,1E1,1.15E2,1.35E2,2.6E2,1.44E2,3.27E2,9.2E1,1.93E2,7.6E1,1E0,8.9E1,8.3E1,2.1E2,9.2E1,1.26E2,6.7E1,1E1,7.1E1,2.05E2,2.2E2,1.2E1,1.42E2,1.8E1,1.5E1,1.77E2,2.23E2,2E0,3.62E2,5.54E2,1E0,1.19E2,9.1E1,3.7E1,1.44E2,1.36E2,1.05E2,5E0],"tree_param":{"num_deleted":"0","num_feature":"15","num_nodes":"123","size_leaf_vector":"1"}},{"base_weights":[2.1293962E-3,7.000442E-1,-8.17362E-1,1.031451E0,3.071656E-1,-4.498019E-1,-1.0260528E0,8.984384E-1,1.1986876E0,6.044394E-1,1.55091E-1,-3.013186E-1,-5.969369E-1,-1.1080147E0,-8.062611E-1,9.792721E-1,7.442781E-1,1.2495403E0,1.0064706E0,4.604847E-1,7.0692354E-1,3.029889E-1,7.1820696E-3,-5.866002E-1,-2.570571E-1,-6.970439E-1,-4.527963E-1,-1.0150083E0,-1.2093496E0,-6.7914087E-1,-8.912291E-1,8.756552E-1,1.0491515E0,6.4332134E-1,8.1465024E-1,1.169566E0,1.3374223E0,9.5662266E-1,5.804534E-2,3.5840625E-1,5.129199E-1,6.5847206E-1,8.5042745E-1,1.6144826E-1,4.0505558E-1,-1.0420882E-1,1.3948138E-1,-3.7306E-1,-6.2887216E-1,-3.281754E-1,-1.460954E-1,-9.2719316E-1,-6.628042E-1,-5.027469E-1,-3.269548E-1,-1.1486601E0,-9.750493E-1,-6.6488594E-2,-1.1657156E0,-7.2484887E-1,-5.82085E-1,-9.260901E-1,-7.18685E-1,2.4533024E-2,4.457619E-2,5.511698E-2,4.7951322E-2,3.2910336E-2,1.3541344E-2,3.6035463E-2,4.2322785E-2,6.0909905E-2,5.4229606E-2,6.8050854E-2,5.2475292E-2,4.8329048E-2,2.1535035E-2,2.6400799E-2,1.4150964E-2,2.6937766E-2,1.8749021E-2,3.469783E-2,2.9365653E-2,4.283614E-2,6.6241743E-3,2.9763954E-3,1.1965637E-2,1.8523557E-2,3.1191424E-2,-1.1613286E-2,-3.2374759E-3,3.7692052E-3,1.628605E-2,-2.0933261E-2,8.915591E-3,-2.8637782E-2,-4.0196564E-2,-1.1176258E-2,-1.8999407E-2,-6.2420047E-3,-2.1838203E-2,-2.753163E-2,-4.8902698E-2,-2.164084E-2,-3.367349E-2,-1.1457409E-2,-2.605153E-2,6.5924968E-3,-1.7011955E-2,-5.7684314E-2,-2.1785988E-2,-4.5380425E-2,-5.1834382E-2,-5.7033043E-2,-6.5386705E-2,-2.8689487E-2,-3.824151E-2,-2.9691571E-2,-2.5663932E-3,-4.029795E-2,-4.810881E-2,-3.6613002E-2,4.7711967E-3],"categories":[],"categories_nodes":[],"categories_segments":[],"categories_sizes":[],"default_left":[0,0,0,0,0,0,0,0,0,0,0,0,0,0,0,0,0,0,0,0,0,0,0,0,0,0,0,0,0,0,0,0,0,0,0,0,0,0,0,0,0,0,0,0,0,0,0,0,0,0,0,0,0,0,0,0,0,0,0,0,0,0,0,0,0,0,0,0,0,0,0,0,0,0,0,0,0,0,0,0,0,0,0,0,0,0,0,0,0,0,0,0,0,0,0,0,0,0,0,0,0,0,0,0,0,0,0,0,0,0,0,0,0,0,0,0,0,0,0,0,0,0,0],"id":9,"left_children":[1,3,5,7,9,11,13,15,17,19,21,23,25,27,29,31,33,35,37,39,41,43,45,47,49,51,53,55,57,59,61,63,65,67,69,71,73,75,-1,77,79,81,83,85,87,89,91,93,95,97,99,101,103,105,107,109,111,-1,113,115,117,119,121,-1,-1,-1,-1,-1,-1,-1,-1,-1,-1,-1,-1,-1,-1,-1,-1,-1,-1,-1,-1,-1,-1,-1,-1,-1,-1,-1,-1,-1,-1,-1,-1,-1,-1,-1,-1,-1,-1,-1,-1,-1,-1,-1,-1,-1,-1,-1,-1,-1,-1,-1,-1,-1,-1,-1,-1,-1,-1,-1,-1],"loss_changes":[4.5400215E3,5.5786206E2,2.795935E2,5.0641357E1,8.8649155E1,2.8745667E1,4.1044678E1,1.5458496E1,8.781128E0,9.47052E0,2.8435865E1,8.195656E0,9.265549E0,1.4728516E1,6.2642517E0,5.2285767E0,2.680069E0,4.114624E0,5.8306885E-1,1.3095131E0,2.1238708E0,9.3248825E0,9.608281E0,5.597477E-1,4.48172E0,2.4587402E0,1.5642319E0,3.6277466E0,2.6796875E0,7.270508E-1,1.6081238E0,1.6885986E0,1.3492432E0,8.752365E-1,1.7277527E-1,4.5983887E-1,1.1394653E0,4.8449707E-1,0E0,1.1036253E0,4.4657516E-1,3.3226776E-1,3.113556E-1,2.160212E0,2.6213264E0,1.773736E0,3.532806E0,5.0212574E-1,2.4684906E-1,1.807415E0,1.3417597E0,3.8075638E-1,5.49881E-1,8.560791E-1,5.3854847E-1,2.1038818E-1,1.9315796E0,0E0,6.3964844E-1,5.999603E-1,5.1815224E-1,5.727234E-1,8.2138824E-1,0E0,0E0,0E0,0E0,0E0,0E0,0E0,0E0,0E0,0E0,0E0,0E0,0E0,0E0,0E0,0E0,0E0,0E0,0E0,0E0,0E0,0E0,0E0,0E0,0E0,0E0,0E0,0E0,0E0,0E0,0E0,0E0,0E0,0E0,0E0,0E0,0E0,0E0,0E0,0E0,0E0,0E0,0E0,0E0,0E0,0E0,0E0,0E0,0E0,0E0,0E0,0E0,0E0,0E0,0E0,0E0,0E0,0E0,0E0,0E0],"parents":[2147483647,0,0,1,1,2,2,3,3,4,4,5,5,6,6,7,7,8,8,9,9,10,10,11,11,12,12,13,13,14,14,15,15,16,16,17,17,18,18,19,19,20,20,21,21,22,22,23,23,24,24,25,25,26,26,27,27,28,28,29,29,30,30,31,31,32,32,33,33,34,34,35,35,36,36,37,37,39,39,40,40,41,41,42,42,43,43,44,44,45,45,46,46,47,47,48,48,49,49,50,50,51,51,52,52,53,53,54,54,55,55,56,56,58,58,59,59,60,60,61,61,62,62],"right_children":[2,4,6,8,10,12,14,16,18,20,22,24,26,28,30,32,34,36,38,40,42,44,46,48,50,52,54,56,58,60,62,64,66,68,70,72,74,76,-1,78,80,82,84,86,88,90,92,94,96,98,100,102,104,106,108,110,112,-1,114,116,118,120,122,-1,-1,-1,-1,-1,-1,-1,-1,-1,-1,-1,-1,-1,-1,-1,-1,-1,-1,-1,-1,-1,-1,-1,-1,-1,-1,-1,-1,-1,-1,-1,-1,-1,-1,-1,-1,-1,-1,-1,-1,-1,-1,-1,-1,-1,-1,-1,-1,-1,-1,-1,-1,-1,-1,-1,-1,-1,-1,-1,-1],"split_conditions":[2.5881904E-1,-5E-1,7.0710677E-1,2.644E2,-2.5881904E-1,5E-1,2.181E2,-7.0710677E-1,-7.0710677E-1,2.474E2,-1.8369701E-16,2.106E2,2.236E2,9.659258E-1,8.660254E-1,2.511E2,2.48E2,2.755E2,2.797E2,2.345E2,2.666E2,2.387E2,2.3605E2,5.93E1,2.357E2,1.97E2,2.367E2,1.949E2,1.93E2,2.314E2,2.332E2,2.274E2,-8.660254E-1,2.474E2,4E-2,-8.660254E-1,3.243E1,2.747E1,5.804534E-2,1.039E2,8.75E0,8.533334E0,1.09E1,2.283E2,2.631E2,2.174E2,2.529E2,9.04E-1,1.186E2,8.3E0,3.076E1,6.04E1,3.16E1,2.78E1,1.924E1,1.351E2,8.660254E-1,-6.6488594E-2,1.04E1,3.75E1,9.81E-1,-2.5881904E-1,9.62E-1,2.4533024E-2,4.457619E-2,5.511698E-2,4.7951322E-2,3.2910336E-2,1.3541344E-2,3.6035463E-2,4.2322785E-2,6.0909905E-2,5.4229606E-2,6.8050854E-2,5.2475292E-2,4.8329048E-2,2.1535035E-2,2.6400799E-2,1.4150964E-2,2.6937766E-2,1.8749021E-2,3.469783E-2,2.9365653E-2,4.283614E-2,6.6241743E-3,2.9763954E-3,1.1965637E-2,1.8523557E-2,3.1191424E-2,-1.1613286E-2,-3.2374759E-3,3.7692052E-3,1.628605E-2,-2.0933261E-2,8.915591E-3,-2.8637782E-2,-4.0196564E-2,-1.1176258E-2,-1.8999407E-2,-6.2420047E-3,-2.1838203E-2,-2.753163E-2,-4.8902698E-2,-2.164084E-2,-3.367349E-2,-1.1457409E-2,-2.605153E-2,6.5924968E-3,-1.7011955E-2,-5.7684314E-2,-2.1785988E-2,-4.5380425E-2,-5.1834382E-2,-5.7033043E-2,-6.5386705E-2,-2.8689487E-2,-3.824151E-2,-2.9691571E-2,-2.5663932E-3,-4.029795E-2,-4.810881E-2,-3.6613002E-2,4.7711967E-3],"split_indices":[13,13,13,11,13,13,11,13,13,11,13,11,11,13,13,11,11,11,11,11,11,11,11,6,11,11,11,11,11,11,11,11,13,11,8,13,0,1,0,3,5,5,5,11,11,11,11,7,3,5,0,6,6,0,1,3,13,0,5,6,7,12,7,0,0,0,0,0,0,0,0,0,0,0,0,0,0,0,0,0,0,0,0,0,0,0,0,0,0,0,0,0,0,0,0,0,0,0,0,0,0,0,0,0,0,0,0,0,0,0,0,0,0,0,0,0,0,0,0,0,0,0,0],"split_type":[0,0,0,0,0,0,0,0,0,0,0,0,0,0,0,0,0,0,0,0,0,0,0,0,0,0,0,0,0,0,0,0,0,0,0,0,0,0,0,0,0,0,0,0,0,0,0,0,0,0,0,0,0,0,0,0,0,0,0,0,0,0,0,0,0,0,0,0,0,0,0,0,0,0,0,0,0,0,0,0,0,0,0,0,0,0,0,0,0,0,0,0,0,0,0,0,0,0,0,0,0,0,0,0,0,0,0,0,0,0,0,0,0,0,0,0,0,0,0,0,0,0,0],"sum_hessian":[7.936E3,4.286E3,3.65E3,2.324E3,1.962E3,1.323E3,2.327E3,1.298E3,1.026E3,6.63E2,1.299E3,6.6E2,6.63E2,1.692E3,6.35E2,8.48E2,4.5E2,8.07E2,2.19E2,2.78E2,3.85E2,6.49E2,6.5E2,8.7E1,5.73E2,3.89E2,2.74E2,8.88E2,8.04E2,2.58E2,3.77E2,3.47E2,5.01E2,1.89E2,2.61E2,4.3E2,3.77E2,1.71E2,4.8E1,9.7E1,1.81E2,2.92E2,9.3E1,2.73E2,3.76E2,3.53E2,2.97E2,1.6E1,7.1E1,3.48E2,2.25E2,4.7E1,3.42E2,1.94E2,8E1,1.98E2,6.9E2,2.06E2,5.98E2,1.71E2,8.7E1,3.1E2,6.7E1,1.5E1,3.32E2,3.08E2,1.93E2,1.81E2,8E0,7.2E1,1.89E2,2.65E2,1.65E2,3.45E2,3.2E1,1.67E2,4E0,2.8E1,6.9E1,1.5E2,3.1E1,1.89E2,1.03E2,9.2E1,1E0,1.19E2,1.54E2,3.27E2,4.9E1,8.2E1,2.71E2,2.22E2,7.5E1,1.5E1,1E0,5.7E1,1.4E1,1.17E2,2.31E2,2.11E2,1.4E1,7E0,4E1,1.7E1,3.25E2,1.3E1,1.81E2,2E0,7.8E1,1.96E2,2E0,3.37E2,3.53E2,5.16E2,8.2E1,3.9E1,1.32E2,8.5E1,2E0,7.7E1,2.33E2,6.6E1,1E0],"tree_param":{"num_deleted":"0","num_feature":"15","num_nodes":"123","size_leaf_vector":"1"}},{"base_weights":[-1.4851116E-4,6.5422165E-1,-7.748377E-1,9.7451496E-1,2.7897707E-1,-4.2680615E-1,-9.737433E-1,7.7877253E-1,1.0649743E0,5.59448E-1,1.4200401E-1,-6.16295E-1,-3.2270855E-1,-1.047626E0,-7.5841635E-1,8.5671324E-1,6.597571E-1,1.122666E0,8.7858605E-1,4.0331843E-1,6.4341563E-1,4.1477834E-3,2.804759E-1,-4.9374238E-1,-6.820234E-1,-2.2387165E-1,-4.556862E-1,-9.529965E-1,-1.1560373E0,-6.407403E-1,-8.3474267E-1,7.3079026E-1,9.0297574E-1,5.5293787E-1,7.008691E-1,1.0706927E0,1.2638249E0,8.40107E-1,1.1044041E0,3.335036E-1,4.6238807E-1,5.977641E-1,8.0239636E-1,1.4298828E-1,-8.784864E-2,3.6113143E-1,1.5184052E-1,-6.8440187E-1,-4.504124E-1,3.6923885E-2,-6.869395E-1,-2.6658958E-1,-7.617416E-2,-5.0860775E-1,-3.491558E-1,-1.0258905E0,-8.8845176E-1,-1.2652301E0,-1.0953213E0,-3.8997817E-1,-6.6321045E-1,-7.0942277E-1,-8.7494826E-1,4.178933E-2,3.096485E-2,4.5673992E-2,2.9272903E-2,2.9225273E-2,1.2570838E-2,3.2619983E-2,4.0976275E-2,5.4974463E-2,4.9531426E-2,2.2197438E-2,6.337986E-2,1.9141866E-2,4.222854E-2,6.02625E-2,4.234794E-2,2.0845698E-2,1.2648595E-2,2.5186796E-2,1.49123985E-2,3.1255618E-2,2.4971597E-2,4.158621E-2,1.6582254E-2,8.741226E-3,-1.3461014E-3,-7.4446695E-3,8.053055E-4,1.56942E-2,2.4811065E-2,4.792947E-3,1.5041083E-2,-3.5191372E-2,-3.512144E-3,-2.2939432E-2,4.1119973E-3,-9.265757E-3,1.2035049E-2,-1.6839828E-2,-3.4830563E-2,-1.1032364E-2,-1.8838359E-2,-6.8827043E-3,4.4453684E-3,-1.5931148E-2,-2.6604319E-2,-2.0920096E-2,-1.3288813E-2,-6.1557688E-2,-4.9893837E-2,-4.1601308E-2,-4.7542688E-2,-3.5892006E-2,-6.3733295E-2,-4.8827972E-2,-5.6189723E-2,-9.740311E-3,-2.5505608E-2,-3.565265E-2,-2.7966723E-2,-3.5963174E-2,4.651916E-3,-4.6117507E-2,-3.7660483E-2],"categories":[],"categories_nodes":[],"categories_segments":[],"categories_sizes":[],"default_left":[0,0,0,0,0,0,0,0,0,0,0,0,0,0,0,0,0,0,0,0,0,0,0,0,0,0,0,0,0,0,0,0,0,0,0,0,0,0,0,0,0,0,0,0,0,0,0,0,0,0,0,0,0,0,0,0,0,0,0,0,0,0,0,0,0,0,0,0,0,0,0,0,0,0,0,0,0,0,0,0,0,0,0,0,0,0,0,0,0,0,0,0,0,0,0,0,0,0,0,0,0,0,0,0,0,0,0,0,0,0,0,0,0,0,0,0,0,0,0,0,0,0,0,0,0,0,0],"id":10,"left_children":[1,3,5,7,9,11,13,15,17,19,21,23,25,27,29,31,33,35,37,39,41,43,45,47,49,51,53,55,57,59,61,63,65,67,69,71,73,75,77,79,81,83,85,87,89,91,93,95,97,99,101,103,105,107,109,111,113,115,117,119,121,123,125,-1,-1,-1,-1,-1,-1,-1,-1,-1,-1,-1,-1,-1,-1,-1,-1,-1,-1,-1,-1,-1,-1,-1,-1,-1,-1,-1,-1,-1,-1,-1,-1,-1,-1,-1,-1,-1,-1,-1,-1,-1,-1,-1,-1,-1,-1,-1,-1,-1,-1,-1,-1,-1,-1,-1,-1,-1,-1,-1,-1,-1,-1,-1,-1],"loss_changes":[4.02201E3,5.166582E2,2.5108057E2,4.0250244E1,7.606299E1,2.5897736E1,3.597119E1,6.2713013E0,1.6046387E1,8.261887E0,2.5444754E1,3.4330902E0,1.1148476E1,1.6523071E1,4.8003235E0,1.9150085E0,9.123535E-1,7.494751E0,2.3654175E0,7.9429626E-1,2.5758514E0,8.557584E0,6.8446426E0,1.0713692E0,1.0927277E0,3.0901928E0,1.8745575E0,3.4311523E0,3.8914795E0,1.0824127E0,1.1780548E0,9.339905E-1,5.2911377E-1,6.811371E-1,6.7310333E-1,9.5806885E-1,4.2382812E-1,3.4614563E-1,3.292427E-1,6.2670517E-1,6.7775726E-1,5.7792664E-1,9.8051834E-1,1.4489908E0,2.559792E0,2.448372E0,2.1229348E0,2.9654217E-1,6.5789604E-1,1.8046717E-1,7.813568E-1,1.8504772E0,1.1489487E0,9.05468E-1,6.0473824E-1,1.2268066E0,9.588623E-1,5.20874E-1,6.575928E-1,4.1645646E-1,7.246628E-1,7.934189E-1,8.40271E-1,0E0,0E0,0E0,0E0,0E0,0E0,0E0,0E0,0E0,0E0,0E0,0E0,0E0,0E0,0E0,0E0,0E0,0E0,0E0,0E0,0E0,0E0,0E0,0E0,0E0,0E0,0E0,0E0,0E0,0E0,0E0,0E0,0E0,0E0,0E0,0E0,0E0,0E0,0E0,0E0,0E0,0E0,0E0,0E0,0E0,0E0,0E0,0E0,0E0,0E0,0E0,0E0,0E0,0E0,0E0,0E0,0E0,0E0,0E0,0E0,0E0,0E0,0E0,0E0],"parents":[2147483647,0,0,1,1,2,2,3,3,4,4,5,5,6,6,7,7,8,8,9,9,10,10,11,11,12,12,13,13,14,14,15,15,16,16,17,17,18,18,19,19,20,20,21,21,22,22,23,23,24,24,25,25,26,26,27,27,28,28,29,29,30,30,31,31,32,32,33,33,34,34,35,35,36,36,37,37,38,38,39,39,40,40,41,41,42,42,43,43,44,44,45,45,46,46,47,47,48,48,49,49,50,50,51,51,52,52,53,53,54,54,55,55,56,56,57,57,58,58,59,59,60,60,61,61,62,62],"right_children":[2,4,6,8,10,12,14,16,18,20,22,24,26,28,30,32,34,36,38,40,42,44,46,48,50,52,54,56,58,60,62,64,66,68,70,72,74,76,78,80,82,84,86,88,90,92,94,96,98,100,102,104,106,108,110,112,114,116,118,120,122,124,126,-1,-1,-1,-1,-1,-1,-1,-1,-1,-1,-1,-1,-1,-1,-1,-1,-1,-1,-1,-1,-1,-1,-1,-1,-1,-1,-1,-1,-1,-1,-1,-1,-1,-1,-1,-1,-1,-1,-1,-1,-1,-1,-1,-1,-1,-1,-1,-1,-1,-1,-1,-1,-1,-1,-1,-1,-1,-1,-1,-1,-1,-1,-1,-1],"split_conditions":[2.5881904E-1,-5E-1,7.0710677E-1,2.538E2,-2.5881904E-1,2.171E2,2.187E2,-7.0710677E-1,-7.0710677E-1,2.444E2,2.38E2,5E-1,5E-1,9.659258E-1,8.660254E-1,2.415E2,2.39E2,2.768E2,2.778E2,2.3605E2,2.666E2,-1.8369701E-16,-1.8369701E-16,1.975E2,7.435E0,2.423E2,2.329E2,2.041E2,1.964E2,2.76E1,-2.5881904E-1,-8.660254E-1,9.45E0,3.235E1,9.62E-1,8.5E0,3.26E1,1.91E-1,8.95E0,3.102E1,8.75E0,8.85E0,8.9E-1,2.136E2,2.297E2,2.561E2,2.535E2,7.885E0,7.885E0,2.736E1,2.85E1,9.15E0,2.04E2,2.107E1,-7.0710677E-1,1.835E2,9.15E0,3.62E1,7.386667E0,2.798E1,2.31E2,1.015E0,2.3E2,4.178933E-2,3.096485E-2,4.5673992E-2,2.9272903E-2,2.9225273E-2,1.2570838E-2,3.2619983E-2,4.0976275E-2,5.4974463E-2,4.9531426E-2,2.2197438E-2,6.337986E-2,1.9141866E-2,4.222854E-2,6.02625E-2,4.234794E-2,2.0845698E-2,1.2648595E-2,2.5186796E-2,1.49123985E-2,3.1255618E-2,2.4971597E-2,4.158621E-2,1.6582254E-2,8.741226E-3,-1.3461014E-3,-7.4446695E-3,8.053055E-4,1.56942E-2,2.4811065E-2,4.792947E-3,1.5041083E-2,-3.5191372E-2,-3.512144E-3,-2.2939432E-2,4.1119973E-3,-9.265757E-3,1.2035049E-2,-1.6839828E-2,-3.4830563E-2,-1.1032364E-2,-1.8838359E-2,-6.8827043E-3,4.4453684E-3,-1.5931148E-2,-2.6604319E-2,-2.0920096E-2,-1.3288813E-2,-6.1557688E-2,-4.9893837E-2,-4.1601308E-2,-4.7542688E-2,-3.5892006E-2,-6.3733295E-2,-4.8827972E-2,-5.6189723E-2,-9.740311E-3,-2.5505608E-2,-3.565265E-2,-2.7966723E-2,-3.5963174E-2,4.651916E-3,-4.6117507E-2,-3.7660483E-2],"split_indices":[13,13,13,11,13,11,11,13,13,11,11,13,13,13,13,11,11,11,11,11,11,13,13,11,2,11,11,11,11,6,12,13,5,0,9,5,10,9,5,0,5,5,7,10,11,11,11,2,2,0,6,5,10,1,12,11,5,10,2,0,11,7,11,0,0,0,0,0,0,0,0,0,0,0,0,0,0,0,0,0,0,0,0,0,0,0,0,0,0,0,0,0,0,0,0,0,0,0,0,0,0,0,0,0,0,0,0,0,0,0,0,0,0,0,0,0,0,0,0,0,0,0,0,0,0,0,0],"split_type":[0,0,0,0,0,0,0,0,0,0,0,0,0,0,0,0,0,0,0,0,0,0,0,0,0,0,0,0,0,0,0,0,0,0,0,0,0,0,0,0,0,0,0,0,0,0,0,0,0,0,0,0,0,0,0,0,0,0,0,0,0,0,0,0,0,0,0,0,0,0,0,0,0,0,0,0,0,0,0,0,0,0,0,0,0,0,0,0,0,0,0,0,0,0,0,0,0,0,0,0,0,0,0,0,0,0,0,0,0,0,0,0,0,0,0,0,0,0,0,0,0,0,0,0,0,0,0],"sum_hessian":[7.932E3,4.3E3,3.632E3,2.319E3,1.981E3,1.322E3,2.31E3,7.36E2,1.583E3,6.49E2,1.332E3,4.67E2,8.55E2,1.717E3,5.93E2,4.41E2,2.95E2,1.205E3,3.78E2,2.29E2,4.2E2,6.68E2,6.64E2,1.66E2,3.01E2,4.92E2,3.63E2,9.22E2,7.95E2,2.37E2,3.56E2,1.23E2,3.18E2,8.6E1,2.09E2,8.87E2,3.18E2,3.27E2,5.1E1,1.08E2,1.21E2,3.3E2,9E1,2.66E2,4.02E2,4.07E2,2.57E2,2.8E1,1.38E2,2E0,2.99E2,3.81E2,1.11E2,2.4E2,1.23E2,4.26E2,4.96E2,2.77E2,5.18E2,2.1E1,2.16E2,9.1E1,2.65E2,6E1,6.3E1,3.06E2,1.2E1,7.7E1,9E0,1.53E2,5.6E1,6.43E2,2.44E2,2E0,3.16E2,4E0,3.23E2,3.4E1,1.7E1,5.1E1,5.7E1,9.5E1,2.6E1,2.54E2,7.6E1,8.4E1,6E0,2.24E2,4.2E1,2.53E2,1.49E2,3.04E2,1.03E2,1.88E2,6.9E1,2.7E1,1E0,1.36E2,2E0,1E0,1E0,9E0,2.9E2,2.71E2,1.1E2,8.1E1,3E1,2.8E1,2.12E2,6.5E1,5.8E1,4.6E1,3.8E2,2.68E2,2.28E2,6E0,2.71E2,1.07E2,4.11E2,9E0,1.2E1,1.42E2,7.4E1,9E1,1E0,1.86E2,7.9E1],"tree_param":{"num_deleted":"0","num_feature":"15","num_nodes":"127","size_leaf_vector":"1"}},{"base_weights":[-9.317293E-4,-6.2853193E-1,6.7833793E-1,-8.85404E-1,-3.2240486E-1,3.2567126E-1,8.7589425E-1,-5.1745945E-1,-9.3525696E-1,-5.8609605E-1,-1.0667027E-1,1.2171885E-1,5.5843294E-1,6.316166E-1,9.529437E-1,-3.7388074E-1,-6.1234266E-1,-9.9629855E-1,-5.477621E-1,-6.503104E-1,-3.0374378E-1,-2.3259947E-1,1.321557E-1,2.7143884E-1,-4.2465363E-2,4.017749E-1,6.63873E-1,6.918872E-1,1.892303E-1,8.323826E-1,1.0555347E0,-1.9773205E-1,-4.3746486E-1,-8.7975264E-1,-5.8290964E-1,-1.1589326E0,-9.5313066E-1,-4.185688E-1,-6.6390795E-1,-3.360856E-1,-7.3329484E-1,-4.0458545E-1,-1.0017048E-1,-9.9541366E-2,-3.6075515E-1,2.843157E-1,-1.0898051E-2,-1.5882552E-3,3.1722566E-1,-1.8222557E-1,1.1533988E-1,2.23797E-1,5.57496E-1,5.1301026E-1,7.135937E-1,5.7360065E-1,8.5076433E-1,-1.8073215E-1,2.3829953E-1,8.601905E-1,5.305986E-1,1.0842953E0,7.831225E-1,-1.3097608E-2,-5.821864E-4,-2.2507792E-2,1.916059E-3,-4.5526735E-2,-1.19896475E-2,-3.1102082E-2,-2.1939829E-2,-6.5051004E-2,-5.5193167E-2,-3.9425544E-2,-4.8861858E-2,-1.4800486E-2,-2.5168398E-2,-9.261216E-3,-3.4565415E-2,-1.0454357E-2,-2.010314E-2,-3.884329E-2,-2.9263977E-2,-3.6434002E-2,-1.8350132E-2,-1.3483146E-2,1.7140389E-3,-1.1332903E-2,1.3329994E-3,-8.0568185E-3,-2.2119462E-2,7.470338E-3,1.9017246E-2,3.3943837E-3,-8.672855E-3,-1.0192736E-2,9.025225E-3,1.9375693E-2,6.495452E-3,-4.3711063E-2,-7.7151135E-3,-6.1452934E-3,9.379689E-3,2.1675069E-2,8.293875E-3,2.4129217E-2,4.237964E-2,-1.5266133E-2,2.6229719E-2,3.9448828E-2,2.6391357E-2,2.455981E-2,3.2801356E-2,4.5923647E-2,3.0782625E-2,1.0843945E-3,-1.7350288E-2,1.3454907E-2,-1.4547694E-2,3.2661792E-2,4.5227833E-2,2.7650392E-2,-9.577934E-3,5.2644737E-2,6.491454E-2,4.1962728E-2,2.7425611E-2],"categories":[],"categories_nodes":[],"categories_segments":[],"categories_sizes":[],"default_left":[0,0,0,0,0,0,0,0,0,0,0,0,0,0,0,0,0,0,0,0,0,0,0,0,0,0,0,0,0,0,0,0,0,0,0,0,0,0,0,0,0,0,0,0,0,0,0,0,0,0,0,0,0,0,0,0,0,0,0,0,0,0,0,0,0,0,0,0,0,0,0,0,0,0,0,0,0,0,0,0,0,0,0,0,0,0,0,0,0,0,0,0,0,0,0,0,0,0,0,0,0,0,0,0,0,0,0,0,0,0,0,0,0,0,0,0,0,0,0,0,0,0,0,0,0,0,0],"id":11,"left_children":[1,3,5,7,9,11,13,15,17,19,21,23,25,27,29,31,33,35,37,39,41,43,45,47,49,51,53,55,57,59,61,63,65,67,69,71,73,75,77,79,81,83,85,87,89,91,93,95,97,99,101,103,105,107,109,111,113,115,117,119,121,123,125,-1,-1,-1,-1,-1,-1,-1,-1,-1,-1,-1,-1,-1,-1,-1,-1,-1,-1,-1,-1,-1,-1,-1,-1,-1,-1,-1,-1,-1,-1,-1,-1,-1,-1,-1,-1,-1,-1,-1,-1,-1,-1,-1,-1,-1,-1,-1,-1,-1,-1,-1,-1,-1,-1,-1,-1,-1,-1,-1,-1,-1,-1,-1,-1],"loss_changes":[3.3857522E3,3.243219E2,2.6544202E2,4.06781E1,1.0717006E2,6.5016556E1,4.5397583E1,3.449318E0,4.6169556E1,1.5177612E1,3.1248758E1,1.80053E1,1.030481E1,1.5573532E1,2.2077393E1,1.1455269E0,7.54364E-1,1.08654785E1,3.788536E0,1.774582E1,3.2235317E0,1.1559551E1,7.8174734E0,4.7884026E0,7.740231E0,7.081112E0,2.491806E0,9.246796E0,1.3501406E0,6.7438965E0,6.977783E0,3.67419E-1,5.003042E-1,5.7450294E-2,5.6168747E-1,1.3259277E0,4.598755E0,1.212471E0,1.7213211E0,1.139267E0,3.0601196E0,1.0236931E0,1.2398217E0,5.380213E0,5.567028E0,2.1973772E0,2.3939393E0,2.0993469E0,4.268154E0,3.4591484E0,2.8633964E0,1.4220471E0,2.5899277E0,1.0891762E0,3.5605774E0,1.7154541E0,2.9208374E0,3.1043983E-1,1.1215122E0,6.607666E0,1.3196564E0,4.6875E0,8.434105E-1,0E0,0E0,0E0,0E0,0E0,0E0,0E0,0E0,0E0,0E0,0E0,0E0,0E0,0E0,0E0,0E0,0E0,0E0,0E0,0E0,0E0,0E0,0E0,0E0,0E0,0E0,0E0,0E0,0E0,0E0,0E0,0E0,0E0,0E0,0E0,0E0,0E0,0E0,0E0,0E0,0E0,0E0,0E0,0E0,0E0,0E0,0E0,0E0,0E0,0E0,0E0,0E0,0E0,0E0,0E0,0E0,0E0,0E0,0E0,0E0,0E0,0E0,0E0,0E0],"parents":[2147483647,0,0,1,1,2,2,3,3,4,4,5,5,6,6,7,7,8,8,9,9,10,10,11,11,12,12,13,13,14,14,15,15,16,16,17,17,18,18,19,19,20,20,21,21,22,22,23,23,24,24,25,25,26,26,27,27,28,28,29,29,30,30,31,31,32,32,33,33,34,34,35,35,36,36,37,37,38,38,39,39,40,40,41,41,42,42,43,43,44,44,45,45,46,46,47,47,48,48,49,49,50,50,51,51,52,52,53,53,54,54,55,55,56,56,57,57,58,58,59,59,60,60,61,61,62,62],"right_children":[2,4,6,8,10,12,14,16,18,20,22,24,26,28,30,32,34,36,38,40,42,44,46,48,50,52,54,56,58,60,62,64,66,68,70,72,74,76,78,80,82,84,86,88,90,92,94,96,98,100,102,104,106,108,110,112,114,116,118,120,122,124,126,-1,-1,-1,-1,-1,-1,-1,-1,-1,-1,-1,-1,-1,-1,-1,-1,-1,-1,-1,-1,-1,-1,-1,-1,-1,-1,-1,-1,-1,-1,-1,-1,-1,-1,-1,-1,-1,-1,-1,-1,-1,-1,-1,-1,-1,-1,-1,-1,-1,-1,-1,-1,-1,-1,-1,-1,-1,-1,-1,-1,-1,-1,-1,-1],"split_conditions":[7.815E0,2.187E2,2.48E2,-7.0710677E-1,7.63E0,7.975E0,7.9766665E0,-8.660254E-1,8.660254E-1,8.660254E-1,2.402E2,2.47E1,8.055E0,2.524E1,2.631E2,-9.659258E-1,1.923E2,1.93E2,1.398E2,-7.0710677E-1,9.659258E-1,1.324E2,2.227E1,2.227E2,2.318E2,2.376E2,-5E-1,2.628E2,9.4E1,8.660254E-1,7.0710677E-1,8.64E1,1.291E2,3.04E-2,1.181E2,1.815E2,-5E-1,7.25E-1,2.169E1,-8.660254E-1,2.332E2,5E1,8.04E1,7.715E0,-8.660254E-1,2.488E2,2.473E1,-8.660254E-1,9.659258E-1,1.949E2,9.52E1,2.358E1,1.217E2,1.943E2,7.0710677E-1,1.056E2,8.660254E-1,9.03E1,1.284E2,-5E-1,1E0,2.868E2,2.628E1,-1.3097608E-2,-5.821864E-4,-2.2507792E-2,1.916059E-3,-4.5526735E-2,-1.19896475E-2,-3.1102082E-2,-2.1939829E-2,-6.5051004E-2,-5.5193167E-2,-3.9425544E-2,-4.8861858E-2,-1.4800486E-2,-2.5168398E-2,-9.261216E-3,-3.4565415E-2,-1.0454357E-2,-2.010314E-2,-3.884329E-2,-2.9263977E-2,-3.6434002E-2,-1.8350132E-2,-1.3483146E-2,1.7140389E-3,-1.1332903E-2,1.3329994E-3,-8.0568185E-3,-2.2119462E-2,7.470338E-3,1.9017246E-2,3.3943837E-3,-8.672855E-3,-1.0192736E-2,9.025225E-3,1.9375693E-2,6.495452E-3,-4.3711063E-2,-7.7151135E-3,-6.1452934E-3,9.379689E-3,2.1675069E-2,8.293875E-3,2.4129217E-2,4.237964E-2,-1.5266133E-2,2.6229719E-2,3.9448828E-2,2.6391357E-2,2.455981E-2,3.2801356E-2,4.5923647E-2,3.0782625E-2,1.0843945E-3,-1.7350288E-2,1.3454907E-2,-1.4547694E-2,3.2661792E-2,4.5227833E-2,2.7650392E-2,-9.577934E-3,5.2644737E-2,6.491454E-2,4.1962728E-2,2.7425611E-2],"split_indices":[2,11,11,12,2,2,2,12,12,12,11,1,2,1,11,12,11,11,10,12,12,10,1,11,11,11,12,11,3,12,12,6,3,8,3,11,12,9,1,12,11,4,4,2,12,11,1,12,12,11,4,1,3,11,12,4,12,3,3,12,12,11,1,0,0,0,0,0,0,0,0,0,0,0,0,0,0,0,0,0,0,0,0,0,0,0,0,0,0,0,0,0,0,0,0,0,0,0,0,0,0,0,0,0,0,0,0,0,0,0,0,0,0,0,0,0,0,0,0,0,0,0,0,0,0,0,0],"split_type":[0,0,0,0,0,0,0,0,0,0,0,0,0,0,0,0,0,0,0,0,0,0,0,0,0,0,0,0,0,0,0,0,0,0,0,0,0,0,0,0,0,0,0,0,0,0,0,0,0,0,0,0,0,0,0,0,0,0,0,0,0,0,0,0,0,0,0,0,0,0,0,0,0,0,0,0,0,0,0,0,0,0,0,0,0,0,0,0,0,0,0,0,0,0,0,0,0,0,0,0,0,0,0,0,0,0,0,0,0,0,0,0,0,0,0,0,0,0,0,0,0,0,0,0,0,0,0],"sum_hessian":[7.94E3,4.127E3,3.813E3,2.243E3,1.884E3,1.37E3,2.443E3,2.69E2,1.974E3,8.47E2,1.037E3,7.31E2,6.39E2,5.88E2,1.855E3,1.09E2,1.6E2,1.704E3,2.7E2,6.89E2,1.58E2,6.79E2,3.58E2,3.82E2,3.49E2,2.59E2,3.8E2,5.17E2,7.1E1,8.57E2,9.98E2,3E1,7.9E1,1.3E1,1.47E2,3.52E2,1.352E3,1.3E2,1.4E2,1.45E2,5.44E2,1.05E2,5.3E1,3.34E2,3.45E2,1.73E2,1.85E2,5.5E1,3.27E2,1.85E2,1.64E2,1.22E2,1.37E2,9.7E1,2.83E2,2.99E2,2.18E2,8E0,6.3E1,7.83E2,7.4E1,9E2,9.8E1,2.2E1,8E0,7.7E1,2E0,1.2E1,1E0,1.13E2,3.4E1,9.2E1,2.6E2,1.77E2,1.175E3,5.5E1,7.5E1,8E0,1.32E2,5.1E1,9.4E1,4.17E2,1.27E2,9E0,9.6E1,2.3E1,3E1,1.66E2,1.68E2,1.01E2,2.44E2,7.3E1,1E2,1.25E2,6E1,2.6E1,2.9E1,2.37E2,9E1,6E0,1.79E2,3.8E1,1.26E2,2.5E1,9.7E1,1.11E2,2.6E1,1E0,9.6E1,1.99E2,8.4E1,1.53E2,1.46E2,1.67E2,5.1E1,4E0,4E0,6E1,3E0,1.41E2,6.42E2,7.2E1,2E0,7.9E2,1.1E2,7.7E1,2.1E1],"tree_param":{"num_deleted":"0","num_feature":"15","num_nodes":"127","size_leaf_vector":"1"}},{"base_weights":[-1.9010247E-4,-6.2920123E-1,6.231628E-1,-8.516423E-1,-3.382395E-1,2.9491508E-1,8.249202E-1,-9.2453545E-1,-6.390669E-1,-5.4612225E-1,-1.0619043E-1,1.1134718E-1,5.228614E-1,5.60756E-1,9.019339E-1,-1.031512E0,-8.3963436E-1,-8.385167E-1,-5.277363E-1,-6.203725E-1,-3.2096577E-1,-2.7192E-1,6.686645E-2,-7.263996E-2,2.36954E-1,3.8479188E-1,6.1452776E-1,4.3848562E-1,7.560553E-1,8.0766124E-1,1.0149343E0,-1.1661096E0,-9.947134E-1,-7.6917285E-1,-8.986436E-1,-8.845801E-1,-5.618433E-1,-6.159279E-1,-3.5205886E-1,-7.284481E-1,-5.3387237E-1,-5.6845117E-1,-2.1154779E-1,-3.3998233E-1,-5.0548907E-2,-6.6728764E-3,2.9589272E-1,2.044491E-1,-1.6014282E-1,1.0550996E-1,3.1115124E-1,2.3040722E-1,5.0719005E-1,2.9338095E-2,6.261874E-1,2.2731334E-1,5.0908506E-1,6.510982E-1,8.973305E-1,5.619424E-1,8.259863E-1,9.5802075E-1,1.1361197E0,-5.9975665E-2,-3.905275E-2,-5.21581E-2,-4.431395E-2,-4.203611E-2,-2.8857132E-2,-4.794789E-2,-4.1131087E-2,-4.7323223E-2,-3.4011476E-2,-1.2596846E-4,-2.8990237E-2,-4.171686E-2,-2.7883163E-2,-2.1533314E-2,-7.460599E-3,-4.3712936E-2,-3.4607332E-2,-3.383771E-2,-1.890322E-2,-3.1257946E-2,-1.7076716E-2,-1.2472543E-2,8.447586E-3,-2.3786623E-2,-1.27653405E-2,1.9748507E-2,-3.6732592E-3,-4.9737534E-3,3.4749105E-3,-9.897477E-3,1.5687974E-2,-1.4619334E-3,1.6197452E-2,-4.223581E-2,-6.9019007E-3,1.2060927E-2,-2.1867377E-3,1.0560808E-2,2.0276643E-2,6.9392817E-3,1.7058073E-2,1.9589076E-2,3.258174E-2,1.34328175E-2,-1.0792389E-2,2.9098561E-2,3.6714748E-2,-2.5692924E-3,1.4001118E-2,3.0133078E-2,2.2141874E-2,1.6295016E-2,3.3956323E-2,1.447545E-2,4.6126395E-2,2.5662119E-2,4.5586873E-2,3.811063E-2,4.4589236E-2,4.8554238E-2,3.6025282E-2,5.1435716E-2,6.15744E-2],"categories":[],"categories_nodes":[],"categories_segments":[],"categories_sizes":[],"default_left":[0,0,0,0,0,0,0,0,0,0,0,0,0,0,0,0,0,0,0,0,0,0,0,0,0,0,0,0,0,0,0,0,0,0,0,0,0,0,0,0,0,0,0,0,0,0,0,0,0,0,0,0,0,0,0,0,0,0,0,0,0,0,0,0,0,0,0,0,0,0,0,0,0,0,0,0,0,0,0,0,0,0,0,0,0,0,0,0,0,0,0,0,0,0,0,0,0,0,0,0,0,0,0,0,0,0,0,0,0,0,0,0,0,0,0,0,0,0,0,0,0,0,0,0,0,0,0],"id":12,"left_children":[1,3,5,7,9,11,13,15,17,19,21,23,25,27,29,31,33,35,37,39,41,43,45,47,49,51,53,55,57,59,61,63,65,67,69,71,73,75,77,79,81,83,85,87,89,91,93,95,97,99,101,103,105,107,109,111,113,115,117,119,121,123,125,-1,-1,-1,-1,-1,-1,-1,-1,-1,-1,-1,-1,-1,-1,-1,-1,-1,-1,-1,-1,-1,-1,-1,-1,-1,-1,-1,-1,-1,-1,-1,-1,-1,-1,-1,-1,-1,-1,-1,-1,-1,-1,-1,-1,-1,-1,-1,-1,-1,-1,-1,-1,-1,-1,-1,-1,-1,-1,-1,-1,-1,-1,-1,-1],"loss_changes":[3.1242205E3,2.5639868E2,2.6479468E2,3.4227173E1,8.2913086E1,6.375331E1,4.9907227E1,1.4310669E1,1.236969E1,1.496402E1,2.3364225E1,1.9568306E1,8.369827E0,1.3088654E1,1.9601807E1,2.4804688E0,3.204712E0,2.115631E0,5.5621414E0,5.977478E0,6.026758E0,6.250698E0,6.722107E0,8.373395E0,4.872818E0,5.060753E0,2.7586365E0,5.0724792E0,2.6037369E0,4.263855E0,4.8981934E0,1.0181885E0,2.1434937E0,5.4777527E0,1.5220642E0,1.5566101E0,3.2001972E-1,2.677925E0,1.9607887E0,9.828186E-1,8.248283E0,6.7437553E-1,2.335258E0,3.5338593E0,1.0397706E0,2.1487727E0,9.179754E-1,2.3273032E0,3.8480787E0,3.716993E0,2.9420319E0,1.2007914E0,2.2785683E0,5.86086E-1,1.4799194E0,1.3217955E0,1.3449173E0,9.362488E-1,1.095993E0,8.267193E-1,3.411499E0,1.152771E0,1.5192871E0,0E0,0E0,0E0,0E0,0E0,0E0,0E0,0E0,0E0,0E0,0E0,0E0,0E0,0E0,0E0,0E0,0E0,0E0,0E0,0E0,0E0,0E0,0E0,0E0,0E0,0E0,0E0,0E0,0E0,0E0,0E0,0E0,0E0,0E0,0E0,0E0,0E0,0E0,0E0,0E0,0E0,0E0,0E0,0E0,0E0,0E0,0E0,0E0,0E0,0E0,0E0,0E0,0E0,0E0,0E0,0E0,0E0,0E0,0E0,0E0,0E0,0E0,0E0,0E0],"parents":[2147483647,0,0,1,1,2,2,3,3,4,4,5,5,6,6,7,7,8,8,9,9,10,10,11,11,12,12,13,13,14,14,15,15,16,16,17,17,18,18,19,19,20,20,21,21,22,22,23,23,24,24,25,25,26,26,27,27,28,28,29,29,30,30,31,31,32,32,33,33,34,34,35,35,36,36,37,37,38,38,39,39,40,40,41,41,42,42,43,43,44,44,45,45,46,46,47,47,48,48,49,49,50,50,51,51,52,52,53,53,54,54,55,55,56,56,57,57,58,58,59,59,60,60,61,61,62,62],"right_children":[2,4,6,8,10,12,14,16,18,20,22,24,26,28,30,32,34,36,38,40,42,44,46,48,50,52,54,56,58,60,62,64,66,68,70,72,74,76,78,80,82,84,86,88,90,92,94,96,98,100,102,104,106,108,110,112,114,116,118,120,122,124,126,-1,-1,-1,-1,-1,-1,-1,-1,-1,-1,-1,-1,-1,-1,-1,-1,-1,-1,-1,-1,-1,-1,-1,-1,-1,-1,-1,-1,-1,-1,-1,-1,-1,-1,-1,-1,-1,-1,-1,-1,-1,-1,-1,-1,-1,-1,-1,-1,-1,-1,-1,-1,-1,-1,-1,-1,-1,-1,-1,-1,-1,-1,-1,-1],"split_conditions":[7.8E0,2.187E2,2.48E2,7.605E0,7.645E0,7.975E0,7.97E0,2.026E2,2.038E2,2.357E2,8E0,2.307E2,8.055E0,2.628E2,2.662E2,1.868E2,1.078E2,7E0,7E0,7.505E0,7.505E0,2.402E2,2.491E2,1.238E2,7.865E0,2.367E2,2.169E2,7E0,7.925E0,8.45E1,2.797E2,1.306E2,1.043E2,7.51E0,9.3E1,7.705E0,2.818E1,8.66E1,1.122E2,7.36E0,8E0,1.004E0,2.68E-2,7.705E0,9.29E1,7.715E0,9E-2,7.845E0,1.93E2,1.332E2,7E0,5E0,7E0,6.45E-1,1.372E2,9.75E1,8.25E0,7E0,2.38E-1,1.265E2,7E0,9.7E0,1.001E2,-5.9975665E-2,-3.905275E-2,-5.21581E-2,-4.431395E-2,-4.203611E-2,-2.8857132E-2,-4.794789E-2,-4.1131087E-2,-4.7323223E-2,-3.4011476E-2,-1.2596846E-4,-2.8990237E-2,-4.171686E-2,-2.7883163E-2,-2.1533314E-2,-7.460599E-3,-4.3712936E-2,-3.4607332E-2,-3.383771E-2,-1.890322E-2,-3.1257946E-2,-1.7076716E-2,-1.2472543E-2,8.447586E-3,-2.3786623E-2,-1.27653405E-2,1.9748507E-2,-3.6732592E-3,-4.9737534E-3,3.4749105E-3,-9.897477E-3,1.5687974E-2,-1.4619334E-3,1.6197452E-2,-4.223581E-2,-6.9019007E-3,1.2060927E-2,-2.1867377E-3,1.0560808E-2,2.0276643E-2,6.9392817E-3,1.7058073E-2,1.9589076E-2,3.258174E-2,1.34328175E-2,-1.0792389E-2,2.9098561E-2,3.6714748E-2,-2.5692924E-3,1.4001118E-2,3.0133078E-2,2.2141874E-2,1.6295016E-2,3.3956323E-2,1.447545E-2,4.6126395E-2,2.5662119E-2,4.5586873E-2,3.811063E-2,4.4589236E-2,4.8554238E-2,3.6025282E-2,5.1435716E-2,6.15744E-2],"split_indices":[2,11,11,2,2,2,2,11,11,11,14,11,2,11,11,11,10,14,14,2,2,11,11,10,2,11,11,14,2,4,11,4,4,2,4,2,0,4,4,2,14,9,8,2,3,2,7,2,11,10,14,14,14,7,4,3,5,14,7,3,14,5,4,0,0,0,0,0,0,0,0,0,0,0,0,0,0,0,0,0,0,0,0,0,0,0,0,0,0,0,0,0,0,0,0,0,0,0,0,0,0,0,0,0,0,0,0,0,0,0,0,0,0,0,0,0,0,0,0,0,0,0,0,0,0,0,0],"split_type":[0,0,0,0,0,0,0,0,0,0,0,0,0,0,0,0,0,0,0,0,0,0,0,0,0,0,0,0,0,0,0,0,0,0,0,0,0,0,0,0,0,0,0,0,0,0,0,0,0,0,0,0,0,0,0,0,0,0,0,0,0,0,0,0,0,0,0,0,0,0,0,0,0,0,0,0,0,0,0,0,0,0,0,0,0,0,0,0,0,0,0,0,0,0,0,0,0,0,0,0,0,0,0,0,0,0,0,0,0,0,0,0,0,0,0,0,0,0,0,0,0,0,0,0,0,0,0],"sum_hessian":[7.966E3,3.965E3,4.001E3,2.246E3,1.719E3,1.524E3,2.477E3,1.67E3,5.76E2,9.06E2,8.13E2,8.45E2,6.79E2,5.61E2,1.916E3,7.34E2,9.36E2,2.04E2,3.72E2,6.8E2,2.26E2,4.15E2,3.98E2,3.43E2,5.02E2,2.73E2,4.06E2,3.47E2,2.14E2,1.049E3,8.67E2,1.51E2,5.83E2,4.33E2,5.03E2,1.73E2,3.1E1,2.46E2,1.26E2,2.99E2,3.81E2,6.8E1,1.58E2,3.17E2,9.8E1,3.02E2,9.6E1,8.2E1,2.61E2,1.82E2,3.2E2,1.22E2,1.51E2,8E0,3.98E2,8.8E1,2.59E2,1.26E2,8.8E1,7.5E1,9.74E2,5.96E2,2.71E2,1.37E2,1.4E1,3.97E2,1.86E2,3.13E2,1.2E2,2.74E2,2.29E2,1.3E2,4.3E1,1E0,3E1,4.9E1,1.97E2,9E1,3.6E1,5.5E1,2.44E2,1.97E2,1.84E2,5.3E1,1.5E1,1.44E2,1.4E1,1.2E2,1.97E2,4E0,9.4E1,1.36E2,1.66E2,3E0,9.3E1,2.8E1,5.4E1,7E0,2.54E2,9.5E1,8.7E1,1.57E2,1.63E2,6.8E1,5.4E1,8.6E1,6.5E1,4E0,4E0,2.87E2,1.11E2,1.4E1,7.4E1,1.04E2,1.55E2,1.1E1,1.15E2,4E0,8.4E1,6.8E1,7E0,5.01E2,4.73E2,5.62E2,3.4E1,1.33E2,1.38E2],"tree_param":{"num_deleted":"0","num_feature":"15","num_nodes":"127","size_leaf_vector":"1"}},{"base_weights":[-4.9118646E-3,5.6339383E-1,-6.700479E-1,8.407562E-1,2.4100807E-1,-3.6606938E-1,-8.413571E-1,7.1401167E-1,9.4193095E-1,4.8923013E-1,1.1940879E-1,-2.3952012E-1,-4.9149725E-1,-9.398976E-1,-7.214658E-1,7.9189175E-1,5.847091E-1,1.0233024E0,8.6148757E-1,3.5763454E-1,5.592955E-1,2.3837495E-1,-1.5288602E-3,-3.2863364E-1,-1.1291807E-1,-5.739838E-1,-3.724291E-1,-8.628521E-1,-1.0107702E0,-6.12783E-1,-7.8243744E-1,6.888344E-1,8.2480913E-1,4.9571952E-1,6.19992E-1,9.70547E-1,1.1374071E0,8.351462E-1,1.0786252E0,3.6419588E-1,-1.301198E-2,4.912365E-1,6.3412E-1,1.7341882E-1,3.6722776E-1,-1.0102035E-1,1.1310059E-1,-4.6015188E-1,-2.8321293E-1,-2.2269912E-2,-1.5617299E-1,-7.189096E-1,-5.395818E-1,-4.1614947E-1,-2.586906E-1,-9.697274E-1,-8.315821E-1,-1.0641056E0,-9.6305627E-1,-6.525013E-1,-4.6174583E-1,-8.5302234E-1,-7.188361E-1,3.668302E-2,2.3859413E-2,4.2585414E-2,3.6601376E-2,2.6234934E-2,1.1287691E-2,2.3234783E-2,3.2255445E-2,5.049122E-2,4.4407025E-2,5.7306595E-2,2.8919196E-2,3.4105055E-2,4.269783E-2,5.4360658E-2,1.2795425E-2,5.7594515E-3,1.8695153E-2,2.6432341E-2,1.31664695E-2,3.2370932E-2,1.1784417E-2,3.4056704E-3,1.0663236E-2,1.6548652E-2,3.0524258E-2,-2.7435279E-2,-4.3913815E-3,1.2085566E-2,2.9986505E-3,-2.4914777E-2,-1.0793538E-2,-1.1641437E-2,-2.0773698E-2,-5.0477097E-3,6.5370314E-3,-9.740121E-3,-7.4027455E-4,-3.654442E-2,-9.988404E-3,-2.0191018E-2,-2.8281216E-2,-7.833178E-3,-2.1681564E-2,-1.477615E-2,-2.4481434E-3,-4.8645295E-2,-1.3595325E-2,-3.879589E-2,-4.3785315E-2,-3.2809258E-2,-5.3716313E-2,-4.428683E-2,-5.1111747E-2,-5.2431985E-3,-3.278904E-2,-2.0893551E-2,-3.723162E-2,-3.5807453E-2,-4.389411E-2,-3.621433E-2,-9.186445E-3],"categories":[],"categories_nodes":[],"categories_segments":[],"categories_sizes":[],"default_left":[0,0,0,0,0,0,0,0,0,0,0,0,0,0,0,0,0,0,0,0,0,0,0,0,0,0,0,0,0,0,0,0,0,0,0,0,0,0,0,0,0,0,0,0,0,0,0,0,0,0,0,0,0,0,0,0,0,0,0,0,0,0,0,0,0,0,0,0,0,0,0,0,0,0,0,0,0,0,0,0,0,0,0,0,0,0,0,0,0,0,0,0,0,0,0,0,0,0,0,0,0,0,0,0,0,0,0,0,0,0,0,0,0,0,0,0,0,0,0,0,0,0,0,0,0],"id":13,"left_children":[1,3,5,7,9,11,13,15,17,19,21,23,25,27,29,31,33,35,37,39,41,43,45,47,49,51,53,55,57,59,61,63,65,67,69,71,73,75,77,79,-1,81,83,85,87,89,91,93,95,97,99,101,103,105,107,109,111,113,115,117,119,121,123,-1,-1,-1,-1,-1,-1,-1,-1,-1,-1,-1,-1,-1,-1,-1,-1,-1,-1,-1,-1,-1,-1,-1,-1,-1,-1,-1,-1,-1,-1,-1,-1,-1,-1,-1,-1,-1,-1,-1,-1,-1,-1,-1,-1,-1,-1,-1,-1,-1,-1,-1,-1,-1,-1,-1,-1,-1,-1,-1,-1,-1,-1],"loss_changes":[3.0141763E3,3.8429346E2,1.9101306E2,2.896228E1,6.0007004E1,2.0929626E1,2.7073364E1,9.909119E0,7.510132E0,5.8300323E0,1.9236437E1,7.4315453E0,6.3175354E0,6.1499023E0,6.571167E0,1.6029663E0,9.2033386E-1,2.7005005E0,2.8226624E0,1.0272198E0,1.8527985E0,5.577545E0,7.5841165E0,2.1874542E0,1.0747912E0,1.5615234E0,1.2598343E0,1.2756653E0,6.64978E-1,2.0203094E0,2.4305725E0,1.1773453E0,5.744934E-1,7.890606E-1,7.767792E-1,5.2404785E-1,2.8330994E-1,1.1016235E0,1.9516754E-1,5.080395E-1,0E0,1.796215E0,9.0182495E-1,1.8736677E0,1.7822742E0,2.0544097E0,2.0968318E0,8.055744E-1,1.8424511E0,1.0967559E0,1.0128517E0,3.0173492E-1,9.0296936E-1,8.257141E-1,5.9578705E-1,3.489685E-2,5.2160645E-1,5.625E-1,7.4642944E-1,4.7720337E-1,7.314148E-1,4.465332E-1,9.2562866E-1,0E0,0E0,0E0,0E0,0E0,0E0,0E0,0E0,0E0,0E0,0E0,0E0,0E0,0E0,0E0,0E0,0E0,0E0,0E0,0E0,0E0,0E0,0E0,0E0,0E0,0E0,0E0,0E0,0E0,0E0,0E0,0E0,0E0,0E0,0E0,0E0,0E0,0E0,0E0,0E0,0E0,0E0,0E0,0E0,0E0,0E0,0E0,0E0,0E0,0E0,0E0,0E0,0E0,0E0,0E0,0E0,0E0,0E0,0E0,0E0,0E0,0E0],"parents":[2147483647,0,0,1,1,2,2,3,3,4,4,5,5,6,6,7,7,8,8,9,9,10,10,11,11,12,12,13,13,14,14,15,15,16,16,17,17,18,18,19,19,20,20,21,21,22,22,23,23,24,24,25,25,26,26,27,27,28,28,29,29,30,30,31,31,32,32,33,33,34,34,35,35,36,36,37,37,38,38,39,39,41,41,42,42,43,43,44,44,45,45,46,46,47,47,48,48,49,49,50,50,51,51,52,52,53,53,54,54,55,55,56,56,57,57,58,58,59,59,60,60,61,61,62,62],"right_children":[2,4,6,8,10,12,14,16,18,20,22,24,26,28,30,32,34,36,38,40,42,44,46,48,50,52,54,56,58,60,62,64,66,68,70,72,74,76,78,80,-1,82,84,86,88,90,92,94,96,98,100,102,104,106,108,110,112,114,116,118,120,122,124,-1,-1,-1,-1,-1,-1,-1,-1,-1,-1,-1,-1,-1,-1,-1,-1,-1,-1,-1,-1,-1,-1,-1,-1,-1,-1,-1,-1,-1,-1,-1,-1,-1,-1,-1,-1,-1,-1,-1,-1,-1,-1,-1,-1,-1,-1,-1,-1,-1,-1,-1,-1,-1,-1,-1,-1,-1,-1,-1,-1,-1,-1],"split_conditions":[2.5881904E-1,-5E-1,7.0710677E-1,2.593E2,-2.5881904E-1,5E-1,2.106E2,-7.0710677E-1,-8.660254E-1,2.442E2,-1.8369701E-16,2.307E2,2.236E2,9.659258E-1,8.660254E-1,2.442E2,2.415E2,2.778E2,2.851E2,1.035E1,2.579E2,2.48E2,2.357E2,2.117E2,2.891E1,2.009E2,2.367E2,1.915E2,1.975E2,2.307E2,2.187E2,3.249E1,5E-1,3.235E1,3E0,2.49E1,1.681E2,5.4E1,1.134E-1,2.06E-2,-1.301198E-2,9.05E0,2.361E2,2.304E2,2.681E2,2.005E2,2.923E1,1E1,9.066667E0,2.444E2,2.074E2,1.296E0,2.167E1,2.78E1,2.58E-2,1.41E0,8.660254E-1,3.62E1,2.825E1,3.17E1,2.723E1,2.139E1,2.501E2,3.668302E-2,2.3859413E-2,4.2585414E-2,3.6601376E-2,2.6234934E-2,1.1287691E-2,2.3234783E-2,3.2255445E-2,5.049122E-2,4.4407025E-2,5.7306595E-2,2.8919196E-2,3.4105055E-2,4.269783E-2,5.4360658E-2,1.2795425E-2,5.7594515E-3,1.8695153E-2,2.6432341E-2,1.31664695E-2,3.2370932E-2,1.1784417E-2,3.4056704E-3,1.0663236E-2,1.6548652E-2,3.0524258E-2,-2.7435279E-2,-4.3913815E-3,1.2085566E-2,2.9986505E-3,-2.4914777E-2,-1.0793538E-2,-1.1641437E-2,-2.0773698E-2,-5.0477097E-3,6.5370314E-3,-9.740121E-3,-7.4027455E-4,-3.654442E-2,-9.988404E-3,-2.0191018E-2,-2.8281216E-2,-7.833178E-3,-2.1681564E-2,-1.477615E-2,-2.4481434E-3,-4.8645295E-2,-1.3595325E-2,-3.879589E-2,-4.3785315E-2,-3.2809258E-2,-5.3716313E-2,-4.428683E-2,-5.1111747E-2,-5.2431985E-3,-3.278904E-2,-2.0893551E-2,-3.723162E-2,-3.5807453E-2,-4.389411E-2,-3.621433E-2,-9.186445E-3],"split_indices":[13,13,13,11,13,13,11,13,13,11,13,11,11,13,13,11,11,11,11,5,11,11,11,11,0,11,11,11,11,11,11,0,12,0,14,1,6,10,8,8,0,5,10,11,11,11,0,14,5,11,10,9,1,0,8,9,13,10,0,10,1,1,11,0,0,0,0,0,0,0,0,0,0,0,0,0,0,0,0,0,0,0,0,0,0,0,0,0,0,0,0,0,0,0,0,0,0,0,0,0,0,0,0,0,0,0,0,0,0,0,0,0,0,0,0,0,0,0,0,0,0,0,0,0,0],"split_type":[0,0,0,0,0,0,0,0,0,0,0,0,0,0,0,0,0,0,0,0,0,0,0,0,0,0,0,0,0,0,0,0,0,0,0,0,0,0,0,0,0,0,0,0,0,0,0,0,0,0,0,0,0,0,0,0,0,0,0,0,0,0,0,0,0,0,0,0,0,0,0,0,0,0,0,0,0,0,0,0,0,0,0,0,0,0,0,0,0,0,0,0,0,0,0,0,0,0,0,0,0,0,0,0,0,0,0,0,0,0,0,0,0,0,0,0,0,0,0,0,0,0,0,0,0],"sum_hessian":[7.972E3,4.299E3,3.673E3,2.31E3,1.989E3,1.325E3,2.348E3,1.029E3,1.281E3,6.53E2,1.336E3,6.61E2,6.64E2,1.285E3,1.063E3,6.39E2,3.9E2,6.31E2,6.5E2,2.29E2,4.24E2,6.73E2,6.63E2,3.87E2,2.74E2,3.9E2,2.74E2,6.22E2,6.63E2,3.86E2,6.77E2,1.6E2,4.79E2,1.15E2,2.75E2,4.38E2,1.93E2,5.84E2,6.6E1,2.27E2,2E0,2.26E2,1.98E2,4.49E2,2.24E2,3.55E2,3.08E2,9.7E1,2.9E2,8.9E1,1.85E2,7.1E1,3.19E2,1.96E2,7.8E1,1.34E2,4.88E2,3.03E2,3.6E2,3.03E2,8.3E1,3.15E2,3.62E2,1.3E2,3E1,3.65E2,1.14E2,1.03E2,1.2E1,4.1E1,2.34E2,2.89E2,1.49E2,1.89E2,4E0,6.8E1,5.16E2,6.5E1,1E0,9E0,2.18E2,1.93E2,3.3E1,1.91E2,7E0,1.24E2,3.25E2,1.97E2,2.7E1,9E0,3.46E2,8.9E1,2.19E2,8.3E1,1.4E1,2.12E2,7.8E1,5.9E1,3E1,1.45E2,4E1,6.9E1,2E0,5.4E1,2.65E2,1.3E1,1.83E2,6.6E1,1.2E1,1.33E2,1E0,2.24E2,2.64E2,9E0,2.94E2,1.63E2,1.97E2,2E0,3.01E2,7.4E1,9E0,5.3E1,2.62E2,3.58E2,4E0],"tree_param":{"num_deleted":"0","num_feature":"15","num_nodes":"125","size_leaf_vector":"1"}},{"base_weights":[1.3843304E-3,5.3636E-1,-6.308204E-1,7.9556906E-1,2.3054408E-1,-3.4510773E-1,-7.9691833E-1,6.1970216E-1,8.6634356E-1,3.429254E-1,3.3960124E-3,-2.3011696E-1,-4.5724455E-1,-8.9321494E-1,-6.803715E-1,7.361631E-1,5.6415206E-1,9.1529137E-1,7.0996505E-1,2.0408271E-1,4.368588E-1,-9.3131006E-2,1.0256936E-1,-3.1386882E-1,-1.2423334E-1,-5.338572E-1,-3.4177914E-1,-7.4903446E-1,-9.317215E-1,-5.714958E-1,-7.4266195E-1,5.550484E-1,7.66948E-1,4.4063875E-1,6.012872E-1,8.680148E-1,1.0305218E0,6.8035454E-1,9.204036E-1,3.100656E-1,1.448885E-1,5.1590025E-1,3.213208E-1,-2.0239028E-1,-5.6487095E-2,6.337239E-2,2.2481588E-1,-4.3995273E-1,-2.7639487E-1,-1.674697E-1,-2.2557476E-3,-6.259327E-1,-4.8326775E-1,-4.4735152E-1,-3.0974537E-1,-9.5796776E-1,-7.241099E-1,-1.1289216E0,-9.1379476E-1,-6.230524E-1,-4.763958E-1,-7.6641124E-1,-5.681411E-1,3.3842895E-2,1.4842163E-2,3.9600447E-2,3.037096E-2,2.4603477E-2,1.6223898E-2,3.2954857E-2,2.7538491E-2,4.1576743E-2,4.769961E-2,5.2576106E-2,4.1400854E-2,1.8517176E-2,3.4594733E-2,1.0853076E-2,4.654875E-2,-1.2578249E-2,1.5863182E-2,-4.42998E-3,8.081668E-3,2.4090566E-2,3.1956263E-2,1.6480826E-2,-1.3859353E-2,-1.1596545E-2,5.3618434E-3,6.3395285E-4,-5.489025E-3,6.1411546E-3,-5.2225974E-4,1.3074971E-2,-1.3254178E-2,-2.2844309E-2,-4.0513515E-3,-1.690257E-2,-8.741814E-3,-3.844438E-3,-1.0883771E-2,-3.3649614E-3,6.6460655E-3,-4.3208886E-2,-2.9761223E-2,-2.4840197E-2,-6.0309432E-3,-1.8866105E-2,-3.6886565E-2,-1.7550549E-2,-1.0667625E-2,-4.8753887E-2,-1.3255447E-2,-3.721411E-2,-3.0372415E-2,-5.801917E-2,-3.19773E-2,-4.9339823E-2,-4.3729514E-2,-4.302231E-2,-3.0207887E-2,-3.3999335E-2,-2.1856233E-2,-3.571899E-2,-4.0681668E-2,-4.1748263E-2,-2.4135994E-2],"categories":[],"categories_nodes":[],"categories_segments":[],"categories_sizes":[],"default_left":[0,0,0,0,0,0,0,0,0,0,0,0,0,0,0,0,0,0,0,0,0,0,0,0,0,0,0,0,0,0,0,0,0,0,0,0,0,0,0,0,0,0,0,0,0,0,0,0,0,0,0,0,0,0,0,0,0,0,0,0,0,0,0,0,0,0,0,0,0,0,0,0,0,0,0,0,0,0,0,0,0,0,0,0,0,0,0,0,0,0,0,0,0,0,0,0,0,0,0,0,0,0,0,0,0,0,0,0,0,0,0,0,0,0,0,0,0,0,0,0,0,0,0,0,0,0,0],"id":14,"left_children":[1,3,5,7,9,11,13,15,17,19,21,23,25,27,29,31,33,35,37,39,41,43,45,47,49,51,53,55,57,59,61,63,65,67,69,71,73,75,77,79,81,83,85,87,89,91,93,95,97,99,101,103,105,107,109,111,113,115,117,119,121,123,125,-1,-1,-1,-1,-1,-1,-1,-1,-1,-1,-1,-1,-1,-1,-1,-1,-1,-1,-1,-1,-1,-1,-1,-1,-1,-1,-1,-1,-1,-1,-1,-1,-1,-1,-1,-1,-1,-1,-1,-1,-1,-1,-1,-1,-1,-1,-1,-1,-1,-1,-1,-1,-1,-1,-1,-1,-1,-1,-1,-1,-1,-1,-1,-1],"loss_changes":[2.716198E3,3.446422E2,1.7441162E2,2.8763184E1,5.0976646E1,1.7367096E1,2.55083E1,3.977417E0,1.2178711E1,1.733493E1,6.3468175E0,5.9114E0,5.877136E0,6.3585815E0,6.744049E0,7.786331E-1,1.8632812E0,6.0404053E0,1.8911896E0,3.349081E0,7.103531E0,1.3338068E0,1.5526361E0,1.6454964E0,1.5712342E0,1.6073074E0,7.9483414E-1,7.2798157E-1,2.5E0,1.6104584E0,2.3374023E0,8.9989376E-1,2.4653625E-1,5.034771E-1,6.708145E-1,2.0577393E0,6.815796E-1,1.0245361E0,1.4737701E-1,8.6004066E-1,1.3788152E0,1.6705399E0,1.7099724E0,7.9318357E-1,9.33975E-1,1.0940211E0,1.489047E0,4.7352028E-1,1.7630672E0,9.837532E-1,7.03544E-1,5.245018E-1,1.2605667E0,9.824152E-1,7.803173E-1,4.972458E-2,1.315155E-1,4.7422028E-1,1.7729492E0,5.9703827E-1,8.3008957E-1,8.5858154E-1,1.5115128E0,0E0,0E0,0E0,0E0,0E0,0E0,0E0,0E0,0E0,0E0,0E0,0E0,0E0,0E0,0E0,0E0,0E0,0E0,0E0,0E0,0E0,0E0,0E0,0E0,0E0,0E0,0E0,0E0,0E0,0E0,0E0,0E0,0E0,0E0,0E0,0E0,0E0,0E0,0E0,0E0,0E0,0E0,0E0,0E0,0E0,0E0,0E0,0E0,0E0,0E0,0E0,0E0,0E0,0E0,0E0,0E0,0E0,0E0,0E0,0E0,0E0,0E0,0E0,0E0],"parents":[2147483647,0,0,1,1,2,2,3,3,4,4,5,5,6,6,7,7,8,8,9,9,10,10,11,11,12,12,13,13,14,14,15,15,16,16,17,17,18,18,19,19,20,20,21,21,22,22,23,23,24,24,25,25,26,26,27,27,28,28,29,29,30,30,31,31,32,32,33,33,34,34,35,35,36,36,37,37,38,38,39,39,40,40,41,41,42,42,43,43,44,44,45,45,46,46,47,47,48,48,49,49,50,50,51,51,52,52,53,53,54,54,55,55,56,56,57,57,58,58,59,59,60,60,61,61,62,62],"right_children":[2,4,6,8,10,12,14,16,18,20,22,24,26,28,30,32,34,36,38,40,42,44,46,48,50,52,54,56,58,60,62,64,66,68,70,72,74,76,78,80,82,84,86,88,90,92,94,96,98,100,102,104,106,108,110,112,114,116,118,120,122,124,126,-1,-1,-1,-1,-1,-1,-1,-1,-1,-1,-1,-1,-1,-1,-1,-1,-1,-1,-1,-1,-1,-1,-1,-1,-1,-1,-1,-1,-1,-1,-1,-1,-1,-1,-1,-1,-1,-1,-1,-1,-1,-1,-1,-1,-1,-1,-1,-1,-1,-1,-1,-1,-1,-1,-1,-1,-1,-1,-1,-1,-1,-1,-1,-1],"split_conditions":[2.5881904E-1,-5E-1,7.0710677E-1,2.525E2,-1.8369701E-16,5E-1,2.106E2,-8.660254E-1,-7.0710677E-1,2.42E2,2.349E2,2.289E2,2.236E2,8.660254E-1,8.660254E-1,3.92E-1,2.374E2,2.755E2,2.797E2,-2.5881904E-1,-2.5881904E-1,2.181E2,2.535E2,2.106E2,2.454E2,2.065E2,6.35E-1,1.868E2,1.815E2,2.255E2,2.324E2,1.832E2,8.333333E0,1.138E2,